# Input file: /users/qiuyu/workspace/pycorrector/data/corpus.txt
# Token count: 1689198
# Smoothing: Modified Kneser-Ney
\data\
ngram 1=7139
ngram 2=40781
ngram 3=74921

\1-grams:
-4.638751	<unk>	0
0	<s>	-1.1609915
-4.057948	</s>	0
-4.4968524	中宏宏睿	-0.15006147
-4.4968524	宝宝	-0.15006147
-2.5869226	年	-0.44994017
-3.5111675	金	-0.23312283
-2.3466592	保险	-0.61333245
-2.0380874	(	-0.50724334
-3.3416765	分红	-0.2183423
-3.2200756	型	-0.2199798
-1.9694116	)	-0.50231147
-3.5471733	产品	-0.16483763
-4.335387	说明书	-0.15006147
-3.1860876	风险	-0.26468506
-3.9506652	提示	-0.15006147
-2.3372974	:	-0.3900235
-2.768044	该	-0.30963415
-2.3017468	为	-0.26347047
-1.7197192	,	-0.59541565
-2.9065762	其	-0.17672287
-2.9916914	红利	-0.35992324
-3.3188958	分配	-0.25597054
-2.6989343	是	-0.30656457
-2.4503837	不	-0.47460026
-2.9712832	保证	-0.564225
-1.6189798	的	-0.44464755
-2.2552578	在	-0.44286495
-4.4968524	某些	-0.15006147
-3.3416765	年度	-0.19748323
-3.4779196	可能	-0.21432608
-4.057948	零	-0.22507079
-1.8290122	。	-0.6371391
-2.9241014	责任	-0.35525277
-2.5328405	本合同	-0.41837755
-3.5864363	有效期	-0.3151101
-2.8897307	内	-0.26469257
-2.3785586	本	-1.0594922
-3.2381222	公司	-0.17957933
-2.7871878	将	-0.2813523
-2.9517913	承担	-0.3940952
-2.9152503	下列	-0.29653966
-3.0845234	一	-0.3417675
-1.6858847	、	-0.27698866
-2.8354397	生存	-0.71332175
-4.335387	金若	-0.1986892
-2.274862	被保险人	-0.42318085
-2.9916914	至	-0.23764968
-2.8354397	约定	-0.39516068
-2.591056	保险合同	-0.36410153
-4.057948	周年	-0.16483763
-2.8656278	日	-0.3813796
-2.9916914	根据	-0.2556068
-3.125181	当时	-0.32662168
-2.678143	基本	-0.7310696
-2.7937613	保险金额	-0.31625217
-4.4968524	按下	-0.15006147
-3.8647041	表所列	-0.1710047
-4.335387	倍数	-0.15006147
-2.404797	给付	-0.44992542
-2.9241014	自	-0.367873
-2.8354397	第	-0.5124722
-2.7618458	5	-0.3063755
-3.3657184	个	-0.3432058
-3.4779196	日起	-0.2073845
-3.1700416	30	-0.40177423
-2.8004358	周岁	-0.47582892
-2.578772	时	-0.46875662
-3.4779196	每个	-0.4004468
-2.7207713	1	-0.3479792
-3.2569513	15	-0.2560306
-3.3657184	16	-0.30607775
-2.8815467	以及	-0.21108949
-3.3416765	17	-0.27652717
-2.8656278	4	-0.28630388
-3.1860876	18	-0.40423325
-3.5864363	19	-0.23411539
-3.1700416	20	-0.27142766
-3.5864363	21	-0.2220139
-3.0845234	9	-0.21974985
-3.7314367	25	-0.20250605
-3.276634	11	-0.23215783
-3.629605	二	-0.35167348
-2.607995	身故	-0.5403809
-2.5476177	保险金	-0.5501676
-3.0976574	若	-0.3182293
-3.0242229	及其	-0.373102
-3.1860876	利息	-0.2858384
-4.2007446	随之	-0.18186767
-2.9517913	终止	-0.3752684
-2.0346136	;	-0.74004376
-3.1396255	之日起	-0.2931026
-2.774332	计算	-0.4734382
-3.2027493	但	-0.2460617
-4.057948	最长	-0.16886437
-3.1396255	超过	-0.19576405
-3.4182055	一年	-0.20594329
-3.629605	两项	-0.18946467
-3.013106	金额	-0.27295542
-2.7497087	中	-0.33524707
-3.9506652	较大	-0.18186767
-3.3416765	者	-0.2947519
-3.7314367	日本	-0.35826215
-2.5220783	合同	-0.36493406
-2.8427923	现金	-0.69399744
-3.5111675	价值	-0.19213176
-2.774332	2	-0.3479525
-3.002267	累计	-0.36125702
-3.629605	已缴	-0.34177062
-2.4385304	保险费	-0.43510425
-2.8897307	-	-0.18203104
-2.7618458	已	-0.3152896
-2.961428	上述	-0.22652248
-4.057948	“	-0.15006147
-3.8647041	”	-0.18186767
-2.9517913	按照	-0.23079172
-2.768044	投保	-0.47260475
-2.9517913	年龄	-0.30557814
-2.599443	所	-0.35519856
-3.0473483	对应	-0.5724577
-4.4968524	期缴	-0.15006147
-3.4779196	缴费	-0.25825343
-4.335387	期数	-0.15006147
-4.4968524	若以	-0.15006147
-3.7314367	趸	-0.48991778
-3.629605	缴	-0.2326933
-2.9813676	方式	-0.23100656
-3.4779196	缴付	-0.31843498
-4.2007446	则	-0.15748522
-2.6256216	以	-0.24720284
-3.9506652	基础	-0.19407748
-3.5864363	采用	-0.15668376
-3.2200756	具有	-0.17075448
-3.7929785	终了	-0.6360458
-3.5111675	即	-0.17366332
-3.3188958	直接	-0.21384086
-3.7929785	形式	-0.15006147
-3.3416765	给	-0.27027345
-2.453398	保单	-0.81452966
-4.4968524	持有人	-0.15006147
-4.4968524	运用	-0.15006147
-3.125181	包括	-0.18123195
-3.7314367	到期	-0.167121
-3.629605	保费	-0.1736951
-3.7929785	留存	-0.24911766
-3.7929785	于本	-0.42107934
-3.447037	享有	-0.19126369
-3.3657184	累积	-0.33584902
-4.2007446	生息	-0.19100016
-3.3657184	购买	-0.22859879
-3.629605	交清	-0.28038704
-3.7929785	增额	-0.18601237
-4.4968524	来源于	-0.15006147
-4.4968524	死差	-0.15006147
-4.4968524	利差	-0.15006147
-2.261047	和	-0.18563537
-4.4968524	费差	-0.15006147
-2.6211474	等	-0.26336727
-3.677543	产生	-0.32895324
-2.8735142	可	-0.27379617
-4.4968524	盈余	-0.15006152
-3.9506652	保险公司	-0.1604069
-3.071775	实际	-0.3063987
-3.7314367	经营	-0.18222357
-4.335387	成果	-0.15006147
-2.5476177	与	-0.31588277
-4.4968524	定价	-0.15006147
-4.335387	假设	-0.15006147
-4.4968524	差异	-0.15006147
-3.071775	造成	-0.2876633
-4.4968524	依托	-0.15006147
-4.057948	先进	-0.39300779
-3.8647041	专业	-0.15006147
-2.5185494	投资	-0.63674146
-3.3911695	管理	-0.1593612
-3.8647041	经验	-0.16340852
-2.8735142	对	-0.27346027
-4.057948	保险产品	-0.15006147
-3.7929785	稳健	-0.16340852
-4.2007446	策略	-0.21695937
-4.4968524	精心	-0.15006147
-4.2007446	配置	-0.15006152
-4.2007446	组合	-0.15006152
-4.4968524	追求	-0.15006147
-3.4779196	长期	-0.21080224
-4.2007446	稳定增长	-0.15006152
-2.9916914	持续	-0.3216916
-4.335387	回报	-0.15006147
-4.4968524	不确定性	-0.15006147
-4.057948	未来	-0.16567343
-3.8647041	水平	-0.15006152
-2.8004358	由	-0.2978319
-4.4968524	保险业务	-0.15006147
-3.7929785	状况	-0.1593612
-3.4779196	决定	-0.30365226
-3.4779196	精神	-0.34993508
-4.4968524	宗旨	-0.15006147
-4.4968524	本着	-0.15006147
-4.4968524	公平合理	-0.15006147
-4.2007446	原则	-0.1593612
-4.4968524	努力	-0.15006147
-3.9506652	保持	-0.15006147
-4.4968524	稳定性	-0.15006147
-3.9506652	具体	-0.15520339
-3.2569513	每年	-0.24824823
-4.4968524	寄发	-0.15006147
-3.8647041	客户	-0.16567343
-4.2007446	通知书	-0.18186767
-3.8647041	中列明	-0.4115191
-4.2007446	免除	-0.1562391
-2.8210979	因	-0.29498488
-3.297251	情形	-0.33120263
-3.4779196	之一	-0.22576538
-1.9332446	或	-0.24897513
-4.335387	间接	-0.16567343
-2.8072145	导致	-0.30716044
-2.6393273	投保人	-0.34328172
-3.4182055	故意	-0.31309736
-4.4968524	杀害	-0.15006147
-4.4968524	故意伤害	-0.15006147
-3.7929785	故意犯罪	-0.31529027
-2.2953935	或者	-0.20058793
-3.7929785	抗拒	-0.4942467
-3.3911695	依法	-0.16223149
-3.677543	采取	-0.17183074
-4.335387	刑事	-0.15006152
-4.057948	强制措施	-0.167121
-3.7314367	三	-0.23170622
-3.677543	成立	-0.24162363
-3.9506652	曾	-0.15006152
-3.5864363	复效	-0.16408679
-3.4779196	最后	-0.3533986
-3.013106	为准	-0.6642057
-3.5111675	起	-0.24792027
-3.8647041	二年	-0.16567343
-3.5471733	自杀	-0.22495916
-4.4968524	时为	-0.15006147
-2.9152503	无	-0.44121623
-4.2007446	民事行为	-0.26806906
-3.5111675	能力	-0.22312051
-3.4779196	人	-0.16646902
-3.297251	除外	-0.4300061
-3.7929785	四	-0.19065052
-3.9506652	战争	-0.20346555
-4.2007446	军事冲突	-0.23897421
-4.057948	暴乱	-0.26965237
-4.057948	武装	-0.29614058
-4.335387	叛乱	-0.15006147
-3.9506652	五	-0.21695937
-4.2007446	核爆炸	-0.26806906
-4.4968524	核辐射	-0.15006152
-4.2007446	核污染	-0.22283313
-2.578772	发生	-0.43697178
-4.335387	第一项	-0.15006147
-2.7437649	向	-0.56793976
-3.9506652	继承人	-0.15850747
-3.0242229	退还	-0.3604018
-2.9423637	其他	-0.24709089
-3.2200756	犹豫	-0.62375766
-4.4968524	期自	-0.15006147
-4.2007446	签收	-0.17717882
-3.2027493	当日	-0.38995168
-4.057948	含	-0.16102318
-4.335387	十五日	-0.1986892
-3.4182055	期	-0.20925725
-3.629605	期内	-0.24495836
-3.1545675	要求	-0.24011491
-3.0356317	解除	-0.4123329
-3.629605	填写	-0.23326261
-3.4779196	申请书	-0.30694115
-2.8072145	并	-0.21097878
-2.8578815	提供	-0.27913868
-3.5471733	身份证明	-0.276453
-2.3514168	及	-0.19853057
-3.7929785	发票	-0.18823756
-4.335387	已收	-0.1986892
-3.3188958	自本	-0.71711475
-3.3657184	收到	-0.22929351
-3.1112013	解除合同	-0.49717966
-3.3657184	书面	-0.2913735
-2.6534798	申请	-0.36257046
-3.7314367	时起	-0.26214412
-4.057948	自始	-0.21695937
-3.7929785	无效	-0.20346555
-3.1112013	任何	-0.18375312
-3.4182055	期满	-0.34996486
-2.4782984	后	-0.4600764
-3.5471733	资料	-0.1780667
-3.3416765	24	-0.33293518
-3.276634	会	-0.19580261
-3.7314367	受到	-0.1604069
-3.5864363	一定	-0.32895324
-3.3911695	损失	-0.2976483
-4.4968524	须知	-0.15006147
-3.013106	7	-0.271127
-4.057948	天至	-0.16340852
-2.8578815	10	-0.2704001
-2.8578815	期间	-0.29858524
-3.9506652	期限	-0.15006147
-2.8354397	3	-0.31544223
-3.0473483	8	-0.26029927
-3.7314367	年期	-0.22361627
-3.2381222	计划	-0.19112194
-4.335387	示例	-0.15006147
-4.4968524	艾	-0.15006147
-4.4968524	先生	-0.15006147
-4.335387	小宝	-0.15006147
-4.335387	男	-0.15006152
-3.5864363	0	-0.19765556
-4.335387	15000	-0.1986892
-3.0845234	元	-0.5324036
-4.4968524	年限	-0.15006147
-3.7314367	年缴	-0.23739447
-4.4968524	238950	-0.15006147
-3.276634	利益	-0.28085065
-1.733335	.	-0.18141866
-2.6884143	未	-0.36121067
-3.297251	选择	-0.20004517
-4.4968524	若艾	-0.15006147
-3.297251	还	-0.19087854
-4.4968524	60000	-0.15006147
-4.4968524	135000	-0.15006147
-4.4968524	165000	-0.15006147
-4.2007446	详见	-0.15006147
-4.335387	演示	-0.15006147
-3.5471733	表	-0.17064196
-4.335387	业务	-0.15006147
-3.1112013	情况	-0.29420966
-3.3911695	注	-0.32676983
-4.2007446	上表	-0.15006152
-4.4968524	中所列	-0.15006147
-4.4968524	当个	-0.15006147
-3.7314367	中宏	-0.29589444
-3.7929785	团体	-0.25476345
-3.5111675	万能	-0.25729835
-3.7314367	员工	-0.1593612
-4.4968524	充足	-0.15006147
-3.9506652	养老	-0.16340852
-2.7437649	保障	-0.5334656
-3.629605	企业	-0.15006147
-4.335387	员工福利	-0.15006147
-3.8647041	重要	-0.1604069
-4.335387	组成部分	-0.15006147
-3.4779196	对于	-0.21464923
-3.8647041	提高	-0.16567343
-4.4968524	忠诚度	-0.15006147
-4.4968524	吸引	-0.15006147
-4.4968524	优秀	-0.15006147
-4.4968524	人才	-0.15006147
-4.4968524	非常	-0.15006147
-4.2007446	作用	-0.18186767
-3.5111675	安享	-0.41431892
-4.4968524	致力于	-0.15006147
-4.4968524	高回报	-0.15006147
-3.9506652	低	-0.18851829
-4.335387	一站式	-0.1986892
-4.4968524	养老保险	-0.15006147
-3.3911695	服务	-0.21688049
-4.335387	公司简介	-0.1986892
-4.335387	两家	-0.15006147
-4.2007446	世界	-0.18186767
-3.7929785	500	-0.19677149
-4.335387	强	-0.15006147
-3.9506652	宏利	-0.48991778
-4.4968524	金融	-0.15006147
-3.276634	中国	-0.2220139
-4.4968524	中化	-0.15006147
-4.4968524	集团	-0.15006147
-4.4968524	强强	-0.15006147
-4.4968524	联手	-0.15006147
-3.0473483	于	-0.2060373
-4.4968524	1996	-0.15006147
-3.7929785	建立	-0.16340852
-4.4968524	第一家	-0.15006147
-4.4968524	合资	-0.15006147
-3.9506652	寿险	-0.16886434
-3.9506652	诚信	-0.29614058
-4.4968524	创新	-0.15006147
-4.4968524	优质服务	-0.15006147
-4.4968524	关怀	-0.15006147
-3.276634	社会	-0.6858016
-4.4968524	方面	-0.15006147
-4.4968524	一直	-0.15006147
-4.4968524	业内	-0.15006147
-4.4968524	楷模	-0.15006147
-4.2007446	凭借	-0.18186767
-4.335387	强大	-0.1986892
-4.4968524	控制能力	-0.15006147
-4.2007446	销售	-0.15006152
-4.2007446	精算	-0.18186767
-4.4968524	以客	-0.15006147
-4.4968524	尊	-0.15006147
-4.4968524	高品质	-0.15006147
-3.1860876	了	-0.16255444
-4.335387	良好	-0.15006147
-4.4968524	品牌形象	-0.15006147
-4.4968524	积累	-0.15006147
-4.335387	丰富	-0.1986892
-4.4968524	本土	-0.15006147
-4.4968524	正	-0.15006147
-4.4968524	抓住机遇	-0.15006147
-3.8647041	发展	-0.18186767
-4.4968524	锐意进取	-0.15006147
-4.4968524	加快	-0.15006147
-4.335387	全国	-0.15006147
-4.4968524	布点	-0.15006147
-4.4968524	步伐	-0.15006147
-3.5111675	日前	-0.18803532
-3.0845234	已经	-0.26872987
-4.4968524	上海	-0.15006147
-4.335387	北京	-0.15006147
-4.4968524	广东	-0.15006147
-4.4968524	浙江	-0.15006147
-4.4968524	江苏	-0.15006147
-4.4968524	四川	-0.15006147
-4.4968524	山东	-0.15006147
-4.4968524	十多个	-0.15006147
-4.4968524	城市	-0.15006147
-4.057948	分支机构	-0.15006147
-3.7929785	目前	-0.16340852
-3.4182055	拥有	-0.35096487
-3.677543	最	-0.74519026
-3.5471733	多	-0.20158736
-4.4968524	牌照	-0.15006147
-4.4968524	外资	-0.15006147
-4.335387	全球	-0.15006152
-4.4968524	成就	-0.15006147
-3.5111675	市场	-0.18209006
-3.9506652	技术	-0.15006147
-3.5111675	取得	-0.15550776
-4.4968524	令人瞩目	-0.15006147
-4.4968524	成绩	-0.15006147
-3.1396255	特别	-0.46909124
-4.4968524	加拿大	-0.15006147
-4.335387	美国	-0.15006147
-4.057948	香港	-0.21695937
-4.4968524	更是	-0.15006147
-4.335387	领域	-0.1986892
-4.4968524	翘楚	-0.15006147
-4.2007446	养老金	-0.15006152
-4.4968524	排名	-0.15006147
-3.9506652	第二	-0.20506938
-4.4968524	中小企业	-0.15006147
-4.4968524	401	-0.15006147
-4.057948	K	-0.1736951
-3.677543	第一	-0.24180304
-4.4968524	积金	-0.15006147
-4.335387	退休金	-0.15006147
-4.4968524	始于	-0.15006147
-4.4968524	1936	-0.15006147
-3.5864363	表现	-0.18823756
-4.4968524	强劲	-0.15006147
-4.4968524	多样化	-0.15006147
-4.4968524	雄厚	-0.15006147
-4.2007446	资本	-0.15006152
-4.4968524	充足率	-0.15006147
-4.4968524	出色	-0.15006147
-4.4968524	风险管理	-0.15006147
-4.4968524	架构	-0.15006147
-4.4968524	荣获	-0.15006147
-3.0242229	标准	-0.23535934
-4.4968524	普尔	-0.15006147
-4.057948	评级	-0.15006147
-4.4968524	服务公司	-0.15006147
-4.4968524	Standard	-0.15006147
-4.4968524	&	-0.15006147
-4.4968524	Poor	-0.15006147
-4.4968524	'	-0.15006147
-4.4968524	sRatingsServices	-0.15006147
-3.8647041	类别	-0.15006147
-3.2381222	最高	-0.35556698
-3.5471733	等级	-0.17232725
-3.7314367	「	-0.1863786
-4.4968524	AAA	-0.15006147
-3.3188958	」	-0.28495067
-3.447037	仅	-0.25106525
-2.8141007	有	-0.18237077
-4.4968524	子公司	-0.15006147
-4.4968524	公开	-0.15006147
-4.4968524	上市	-0.15006147
-3.7929785	人寿保险	-0.25476345
-4.335387	反映	-0.15006147
-4.4968524	领先	-0.15006147
-4.4968524	地位	-0.15006147
-4.4968524	高质量	-0.15006147
-4.2007446	稳定	-0.18186767
-3.9506652	运营	-0.15006147
-2.9517913	证明	-0.44619548
-4.4968524	财务	-0.15006147
-4.4968524	实力	-0.15006147
-4.335387	进一步	-0.15006147
-4.4968524	奠定	-0.15006147
-4.4968524	领先地位	-0.15006147
-4.4968524	优势	-0.15006147
-4.335387	设计	-0.15006147
-4.335387	平台	-0.15006147
-4.4968524	量身	-0.15006147
-4.4968524	定制	-0.15006147
-4.057948	灵活	-0.1736951
-4.4968524	周全	-0.15006147
-4.057948	方案	-0.16340852
-4.2007446	实现	-0.15006152
-4.4968524	国际化	-0.15006147
-3.9506652	收益	-0.15006152
-4.057948	机制	-0.1736951
-3.8647041	帐户	-0.1710047
-3.1700416	资产	-0.30611938
-4.335387	完善	-0.1986892
-4.057948	信息	-0.16567343
-4.335387	披露	-0.15006152
-3.9506652	制度	-0.15006147
-4.335387	让	-0.15006147
-4.057948	随时	-0.1710047
-4.335387	方便	-0.15006147
-3.9506652	查询	-0.15006152
-4.4968524	掌握	-0.15006147
-4.4968524	动态	-0.15006147
-3.5471733	合理	-0.34513217
-2.9065762	费用	-0.3194158
-4.4968524	精打细算	-0.15006147
-4.335387	最大	-0.15006147
-3.297251	程度	-0.20841001
-4.335387	发挥	-0.15006147
-4.4968524	经济效益	-0.15006147
-4.335387	激励	-0.1986892
-4.4968524	概述	-0.15006147
-4.057948	保本	-0.1736951
-3.276634	账户	-0.23204279
-3.9506652	供	-0.16567343
-4.4968524	投资选择	-0.15006147
-3.4779196	单位	-0.19798666
-3.5471733	定期	-0.2614048
-4.335387	不定期	-0.15006147
-3.5111675	地	-0.15391219
-4.4968524	对此	-0.15006147
-2.5952294	进行	-0.28583977
-3.7929785	供款	-0.19719693
-3.9506652	运作	-0.16340852
-3.629605	归属	-0.19746788
-4.4968524	收益分配	-0.15006147
-3.3911695	到	-0.15520339
-3.677543	个人账户	-0.18823756
-4.4968524	退休	-0.15006147
-3.1545675	可以	-0.23820747
-2.9152503	领取	-0.35037583
-4.4968524	自由选择	-0.15006147
-4.335387	定额	-0.15006147
-4.335387	\	-0.15006152
-3.4779196	额外	-0.26214412
-3.9506652	多种	-0.21695937
-4.4968524	适应	-0.15006147
-3.4182055	不同	-0.20293222
-4.4968524	财务状况	-0.15006147
-4.335387	设置	-0.15006147
-3.0845234	公共	-0.6815516
-3.3911695	缴纳	-0.25106525
-3.7314367	尚未	-0.1593612
-3.4779196	计入	-0.30986363
-2.7557347	部分	-0.31116325
-3.9506652	注销	-0.15006147
-3.5111675	转入	-0.2057534
-4.335387	中未	-0.15006147
-2.8578815	之	-0.42994308
-4.057948	投资收益	-0.16340852
-3.447037	属于	-0.2327176
-3.2569513	所有	-0.22274043
-4.2007446	个人帐户	-0.18186767
-3.7314367	保留	-0.18222357
-4.335387	离职	-0.1986892
-4.2007446	提出申请	-0.15006152
-3.125181	继续	-0.3973524
-3.0473483	同时	-0.32050896
-3.4779196	用于	-0.15493123
-3.5471733	记录	-0.15719734
-2.8578815	支付	-0.338821
-4.2007446	全面	-0.15006152
-4.4968524	自由	-0.15006147
-3.297251	一次性	-0.28842404
-3.629605	分期	-0.19224639
-3.1396255	达到	-0.18382433
-4.057948	前身	-0.39300779
-3.9506652	故	-0.18186767
-3.276634	全残	-0.3586069
-3.0593898	前	-0.26547822
-4.335387	退出	-0.1986892
-4.057948	事先	-0.15006147
-4.4968524	方	-0.15006147
-4.2007446	委员会	-0.15006152
-4.4968524	主体	-0.15006147
-4.4968524	投资决策	-0.15006147
-4.4968524	长期投资	-0.15006147
-4.335387	理念	-0.15006147
-3.0242229	有效	-0.38324696
-3.7929785	控制	-0.19065052
-4.335387	前提	-0.1986892
-3.0473483	下	-0.31586018
-3.7314367	高	-0.1604069
-3.276634	比例	-0.23624182
-3.8647041	债券	-0.19677149
-4.2007446	获取	-0.15006152
-3.677543	当期	-0.28434706
-3.9506652	本金	-0.15006147
-3.8647041	安全	-0.15006152
-3.7929785	一般	-0.28756052
-4.057948	分配比例	-0.16567343
-4.4968524	区间	-0.15006147
-3.4182055	100%	-0.261264
-3.7929785	0%	-0.1710047
-4.057948	银行存款	-0.16567343
-3.1545675	/	-0.18592972
-3.7314367	30%	-0.17594314
-3.297251	每月	-0.22800672
-3.5111675	公布	-0.37783426
-3.0356317	结算	-0.45596415
-3.3911695	利率	-0.21915413
-4.4968524	收益率	-0.15006147
-3.3911695	低于	-0.16713637
-4.335387	客户服务	-0.15006147
-4.335387	寄送	-0.15006147
-4.4968524	参数	-0.15006147
-4.335387	指标	-0.15006147
-3.071775	相关	-0.26508918
-3.447037	报告	-0.32787094
-4.335387	协助	-0.15006147
-4.4968524	召开	-0.15006147
-4.4968524	说明会	-0.15006147
-4.4968524	清楚	-0.15006147
-4.335387	了解	-0.15006147
-4.335387	更好	-0.1986892
-4.335387	举办	-0.15006147
-4.057948	各类	-0.15006147
-4.4968524	讲座	-0.15006147
-3.9506652	帮助	-0.15006147
-3.5864363	说明	-0.18946467
-3.9506652	某	-0.16567343
-4.4968524	希望	-0.15006147
-4.4968524	长远	-0.15006147
-3.9506652	规范	-0.15006152
-3.4779196	如下	-0.19914968
-3.677543	参加	-0.21386042
-3.4779196	人员	-0.19183126
-3.7314367	资格	-0.1593612
-3.629605	正式	-0.16567343
-4.4968524	年薪	-0.15006147
-3.5111675	5%	-0.19719693
-3.1396255	交纳	-0.32670563
-2.7379012	按	-0.29617724
-2.8980718	以下	-0.22402206
-4.4968524	逐年	-0.15006147
-3.7314367	退休年龄	-0.19065052
-3.3188958	60	-0.32463622
-4.335387	女	-0.15006152
-3.8647041	55	-0.29614058
-4.4968524	工龄	-0.15006147
-2.8656278	6	-0.34767607
-4.4968524	040%	-0.15006147
-3.677543	50%	-0.15550776
-3.5471733	60%	-0.22844388
-4.057948	70%	-0.15006152
-3.7314367	80%	-0.17687327
-3.7929785	90%	-0.15006147
-3.4779196	*	-0.22168659
-4.335387	纯粹	-0.15006147
-4.4968524	描述性	-0.15006147
-3.1396255	不能	-0.2100248
-4.2007446	理解	-0.15006147
-4.335387	预期	-0.15006147
-4.335387	人寿	-0.1986892
-3.8647041	[	-0.16171758
-4.2007446	2018	-0.18186767
-3.7929785	]	-0.16171758
-3.2569513	医疗保险	-0.2828584
-4.4968524	019	-0.15006147
-3.9506652	号	-0.23897421
-3.3911695	请	-0.30387148
-4.4968524	扫描	-0.15006147
-4.335387	验证	-0.1986892
-3.071775	条款	-0.2811916
-2.6631777	附加	-0.5436286
-4.335387	康宝	-0.15006147
-4.4968524	综合	-0.15006147
-2.7097156	住院	-0.45450047
-4.2007446	第一条	-0.18186767
-3.7314367	构成	-0.17175265
-4.335387	简称	-0.15006147
-3.013106	续保	-0.3000243
-3.677543	参与	-0.15719734
-3.5471733	依	-0.17183074
-4.057948	经本	-0.39300779
-3.071775	【	-0.9552498
-3.3416765	释义	-0.20965679
-3.276634	】	-0.4173528
-3.3188958	同意	-0.28579178
-2.7497087	主合同	-0.35983586
-3.2569513	上	-0.19255106
-3.5111675	也	-0.21080224
-2.9152503	适用	-0.4584649
-3.9506652	一致	-0.17717882
-3.5471733	以本	-0.5971706
-3.4779196	载明	-0.35905415
-2.9152503	保险单	-0.50834346
-4.057948	批注	-0.15850747
-2.8502715	效力	-0.63377035
-3.5111675	中止	-0.2264958
-4.057948	第七条	-0.18186767
-3.5864363	生效日	-0.2823571
-3.447037	每	-0.26657394
-4.335387	五年	-0.15006147
-3.3188958	一个	-0.26606902
-3.5471733	届满	-0.24389873
-4.4968524	前未	-0.15006147
-3.5111675	提出	-0.19701077
-3.276634	不再	-0.2983644
-3.0242229	且	-0.17966191
-3.2027493	自动	-0.36192107
-3.9506652	直至	-0.16250585
-3.297251	之前	-0.3140377
-3.4182055	重新	-0.25953993
-3.5864363	审核	-0.18832527
-3.3416765	是否	-0.18746823
-3.013106	符合	-0.31149068
-3.1860876	条件	-0.37966257
-3.8647041	第二条	-0.20506938
-4.2007446	视作	-0.1736951
-4.2007446	第三条	-0.23542787
-2.5476177	意外	-0.91783077
-3.5471733	伤害	-0.19521588
-3.1700416	等待	-0.5900295
-2.5869226	疾病	-0.372773
-3.0593898	经	-0.3062905
-3.2027493	医生	-0.19189773
-3.0845234	诊断	-0.28658205
-4.335387	需在	-0.18186767
-2.9331365	医院	-0.313506
-2.9712832	接受	-0.28449142
-3.8647041	六	-0.20506938
-2.668109	治疗	-0.36830586
-3.2381222	事故	-0.24689144
-3.629605	每日	-0.23983148
-3.5111675	入院	-0.1562391
-3.4182055	出院	-0.18398416
-4.335387	之日止	-0.15006147
-2.9517913	必须	-0.296085
-3.297251	时间	-0.20032883
-3.9506652	所载	-0.26965237
-3.5471733	天数	-0.19335514
-3.2381222	同一	-0.22422007
-3.9506652	一百八十	-0.21695937
-3.7929785	天为	-0.1930093
-3.677543	限	-0.24295442
-2.8656278	医疗	-0.32527167
-3.3188958	范围	-0.34936544
-4.335387	时未	-0.15006147
-3.677543	年满	-0.25033408
-4.335387	十八周岁	-0.15006147
-3.9506652	七	-0.21695937
-3.8647041	八	-0.20506938
-3.7314367	公费医疗	-0.17594314
-4.057948	九	-0.23542787
-3.5864363	身份	-0.19407748
-2.9813676	扣除	-0.28773507
-3.3657184	获得	-0.21521835
-3.629605	住院费用	-0.33233786
-3.2569513	补偿	-0.30674168
-3.3911695	索赔	-0.2327176
-3.8647041	奖励	-0.16483763
-3.677543	若本	-0.5313105
-4.4968524	等同于	-0.15006147
-3.9506652	十	-0.20506938
-2.9916914	从	-0.26084006
-3.2027493	生效	-0.312392
-3.1700416	开始	-0.20145011
-4.4968524	五个	-0.15006147
-3.3188958	没有	-0.2014753
-2.6832483	而	-0.31076777
-4.4968524	期末	-0.15006147
-3.7314367	发放	-0.18222357
-3.276634	每次	-0.24010776
-3.5111675	该次	-0.1868647
-4.4968524	末	-0.15006147
-4.335387	平均值	-0.15006147
-4.335387	一旦	-0.1986892
-4.4968524	变为	-0.15006147
-3.4779196	日为	-0.18211308
-4.4968524	起点	-0.15006147
-3.297251	新	-0.65103954
-3.629605	限额	-0.23197587
-3.8647041	总额	-0.16567343
-3.7314367	门急诊	-0.19331357
-3.7929785	前后	-0.16886437
-3.2027493	各	-0.26645756
-4.057948	三十天	-0.15006147
-3.7929785	内因	-0.1593612
-4.4968524	自负	-0.15006147
-3.4779196	为限	-0.47710183
-4.4968524	若经	-0.15006147
-3.5864363	因此	-0.22807568
-4.4968524	引发	-0.15006147
-3.629605	并发症	-0.21874757
-3.0976574	需	-0.20546865
-4.057948	再次	-0.23542787
-3.3657184	如	-0.2240125
-3.677543	前次	-0.1785802
-4.4968524	今次	-0.15006147
-4.4968524	相隔	-0.15006147
-3.297251	天	-0.22594444
-3.9506652	无论	-0.15850747
-3.4182055	经过	-0.26556265
-3.5471733	视为	-0.24816327
-4.335387	商业性	-0.1986892
-3.5471733	政府	-0.1702391
-3.3657184	机构	-0.22515875
-4.335387	社会福利	-0.1986892
-2.5220783	指	-0.2971484
-3.5471733	签发	-0.23673521
-4.2007446	无关	-0.26806906
-4.2007446	第四条	-0.23897421
-4.2007446	主动	-0.26806906
-3.8647041	吸食	-0.42107934
-3.8647041	注射	-0.23781021
-3.1396255	毒品	-0.44274074
-3.9506652	十一	-0.16886437
-4.057948	遵	-0.39300779
-4.2007446	医嘱	-0.15006147
-4.335387	擅自	-0.15006147
-3.629605	服用	-0.3624658
-4.335387	涂用	-0.1986892
-3.2200756	药物	-0.28869587
-3.2027493	酒后	-0.82896036
-3.297251	驾驶	-0.26004556
-4.2007446	十二	-0.18186767
-3.2569513	合法	-0.3799936
-3.447037	驾驶证	-0.26556265
-4.2007446	十三	-0.18186767
-3.5864363	行驶证	-0.17755096
-4.2007446	十四	-0.18186767
-3.125181	机动车	-0.34487647
-4.2007446	一百二十	-0.18186767
-4.335387	扁桃腺	-0.18186767
-4.4968524	甲状腺	-0.15006147
-4.335387	疝气	-0.15006152
-3.677543	女性	-0.1729901
-4.335387	生殖系统	-0.15006147
-3.1112013	检查	-0.30452412
-3.677543	患	-0.25187168
-4.2007446	精神性	-0.26806906
-3.5111675	依据	-0.19100016
-3.7929785	世界卫生组织	-0.24911766
-3.0356317	《	-0.35655975
-3.0593898	有关	-0.32411146
-3.297251	健康	-0.19087854
-3.8647041	问题	-0.18594874
-3.8647041	国际	-0.16567343
-4.2007446	统计	-0.16886437
-3.4779196	分类	-0.16567343
-3.276634	》	-0.26244748
-4.4968524	ICD10	-0.15006147
-4.4968524	行为障碍	-0.15006152
-3.4779196	牙齿	-0.29598126
-4.2007446	美容	-0.20506938
-3.7929785	整容手术	-0.1785802
-3.9506652	或非	-0.16567343
-3.2569513	性	-0.20830202
-3.7929785	妊娠	-0.33233786
-4.335387	异位	-0.1986892
-4.2007446	流产	-0.1736951
-4.057948	分娩	-0.18186772
-4.335387	节育	-0.18851829
-4.057948	不孕	-0.21695937
-4.335387	不育	-0.15006147
-4.057948	绝育	-0.18851829
-2.7379012	手术	-0.3695447
-3.276634	遗传性	-0.87971723
-3.276634	先天性	-0.6940657
-3.7929785	畸形	-0.1604069
-3.9506652	变形	-0.19719693
-3.9506652	染色体	-0.33233786
-3.5471733	异常	-0.1780667
-4.335387	已患	-0.1986892
-3.9506652	作	-0.15006147
-4.4968524	书面声明	-0.15006147
-2.8735142	被	-0.40486053
-4.2007446	第五条	-0.2116604
-3.677543	向本	-0.5876104
-3.3657184	承保	-0.25804377
-3.677543	当月	-0.25450176
-3.3911695	日期	-0.23617147
-3.8647041	以该	-0.16340852
-3.0976574	月	-0.2570576
-3.8647041	一日	-0.21695937
-3.7314367	应缴	-0.24896605
-3.4779196	首期	-0.50842917
-3.9506652	次日	-0.38510224
-4.335387	六十日	-0.15006147
-3.0593898	宽限期	-0.27601546
-3.2027493	仍	-0.36300856
-4.4968524	满后	-0.15006147
-3.7314367	未能	-0.16766502
-3.276634	贷款	-0.25467217
-3.5864363	垫	-0.5408615
-3.2027493	作为	-0.21418633
-4.4968524	标志	-0.15006147
-3.2200756	除	-0.27441797
-3.9506652	投保单	-0.19719693
-3.3911695	文件	-0.23528089
-3.7314367	另	-0.1736951
-3.2381222	外	-0.4386767
-4.4968524	自成	-0.15006147
-4.4968524	立时	-0.15006147
-4.2007446	第六条	-0.16567343
-3.002267	应	-0.25511193
-4.057948	其余	-0.23542787
-4.057948	各期	-0.17717882
-4.335387	注明	-0.15006147
-4.2007446	为止	-0.26806906
-4.335387	为主	-0.18186767
-4.335387	周期	-0.15006147
-2.8004358	变更	-0.35959026
-3.0593898	职业	-0.39386746
-4.2007446	工种	-0.18186772
-3.5471733	依照	-0.21824124
-3.9506652	拒保	-0.48991778
-4.057948	自其	-0.15006147
-3.4779196	危险	-0.60813963
-3.125181	增加	-0.26708904
-4.335387	前项	-0.15006147
-3.1396255	通知	-0.3018
-4.335387	原收	-0.1986892
-4.4968524	应收	-0.15006147
-4.2007446	第十一条	-0.16171758
-3.5864363	处理	-0.18463625
-4.4968524	届满时	-0.15006147
-3.8647041	书面形式	-0.22602613
-3.7314367	系统	-0.24364184
-4.2007446	充分	-0.1736951
-3.7929785	设备	-0.23170622
-4.4968524	全套	-0.15006147
-4.335387	外科手术	-0.15006147
-3.629605	二十四	-0.61918545
-3.8647041	小时	-0.1777247
-3.0845234	护理	-0.4202023
-3.1112013	办理	-0.27105355
-4.335387	住院手续	-0.15006147
-3.1112013	须	-0.32302487
-4.2007446	住	-0.1736951
-4.4968524	急诊室	-0.15006147
-3.7314367	急诊	-0.21432608
-4.335387	观察室	-0.15006147
-3.5111675	入住	-0.30591595
-4.2007446	康复科	-0.18186767
-3.3911695	康复	-0.31377074
-4.2007446	病床	-0.15006152
-4.057948	一天	-0.15006147
-4.057948	内未	-0.15006147
-4.057948	检查和	-0.15006147
-4.2007446	不满	-0.15006152
-4.4968524	外院	-0.15006147
-3.8647041	临时	-0.19065052
-3.8647041	体检	-0.16340852
-3.2569513	法定	-0.50842917
-3.8647041	记载	-0.20506938
-4.057948	出生日期	-0.16171758
-4.4968524	一岁	-0.15006147
-3.8647041	第八条	-0.19224639
-2.7937613	受益人	-0.37098557
-3.1545675	指定	-0.3581105
-3.9506652	另有	-0.48991778
-3.9506652	本人	-0.18601237
-4.057948	第九条	-0.1736951
-3.4182055	知道	-0.30450723
-3.297251	应当	-0.21432576
-3.276634	及时	-0.29600918
-3.9506652	应由	-0.16567343
-4.335387	递交	-0.15006152
-4.335387	门	-0.1986892
-4.335387	病历卡	-0.1986892
-4.4968524	含首	-0.15006147
-4.4968524	诊病	-0.15006147
-4.335387	历	-0.15006147
-4.4968524	小结	-0.15006147
-3.8647041	检查报告	-0.16340852
-4.057948	医疗费	-0.15006147
-3.7929785	原始	-0.2116604
-3.7929785	收据	-0.22361627
-3.5864363	能	-0.17669508
-3.629605	确认	-0.16567343
-3.9506652	性质	-0.20506938
-3.2200756	原因	-0.2598948
-3.7929785	请求	-0.24180304
-3.7314367	诉讼时效	-0.30264637
-4.057948	第十条	-0.18594874
-4.2007446	十天	-0.18186767
-4.2007446	内以	-0.18186767
-3.7929785	降低	-0.1604069
-3.7929785	接到	-0.36656237
-3.8647041	差额	-0.1915364
-4.4968524	增收	-0.15006147
-4.2007446	第十二条	-0.20874427
-3.5864363	款项	-0.26806158
-4.2007446	如需	-0.15006152
-3.3188958	各项	-0.44761205
-3.7929785	欠缴	-0.6360458
-3.5864363	有权	-0.19100016
-3.5864363	欠款	-0.29878256
-4.2007446	第十三条	-0.19140007
-3.071775	减额	-1.0697014
-4.2007446	缴清	-0.15520339
-4.4968524	六十五	-0.15006147
-3.7314367	或本	-0.42107934
-4.057948	第十四条	-0.2116604
-4.335387	指中宏	-0.1986892
-4.2007446	有限公司	-0.15779734
-3.2569513	遭受	-0.46500546
-4.2007446	外来	-0.26806906
-3.8647041	突发	-0.15006152
-4.4968524	非本意	-0.15006147
-3.0845234	非	-0.18739223
-3.5471733	使	-0.22333969
-3.3416765	身体	-0.2002656
-4.2007446	客观	-0.18186767
-4.335387	事件	-0.15006147
-3.8647041	指本	-0.31815547
-3.8647041	第三	-0.20506938
-3.3657184	满足	-0.3398644
-4.335387	四项	-0.15006147
-3.3416765	中华人民共和国	-0.22823118
-4.4968524	医师资格	-0.15006147
-4.057948	证书	-0.21695937
-3.5471733	医师	-0.1604069
-4.057948	执业	-0.15006147
-4.4968524	按期	-0.15006147
-3.9506652	部门	-0.17278886
-4.4968524	登记注册	-0.15006147
-4.2007446	主治医师	-0.1736951
-2.774332	以上	-0.3231435
-4.335387	职称	-0.15006147
-3.677543	二级	-0.32488874
-3.0473483	相应	-0.3955198
-4.335387	科室	-0.15006147
-3.5471733	从事	-0.16766502
-3.5471733	临床	-0.2123404
-3.7314367	工作	-0.1593612
-4.057948	三年	-0.15006147
-3.5864363	指经	-0.18982926
-3.3416765	国家	-0.20857461
-4.2007446	卫生部门	-0.15006147
-4.4968524	综合性	-0.15006147
-4.335387	专科医院	-0.1986892
-4.335387	诊所	-0.1986892
-4.057948	联合	-0.15006147
-3.9506652	病房	-0.1644524
-4.057948	家庭	-0.16567343
-4.4968524	休养	-0.15006147
-4.2007446	戒酒	-0.18186767
-4.4968524	戒毒	-0.15006147
-3.3657184	医疗机构	-0.18013918
-4.335387	新型农村	-0.18186767
-4.4968524	合作医疗	-0.15006147
-4.4968524	职工基本	-0.15006147
-4.4968524	城镇居民	-0.15006147
-4.057948	医疗保障	-0.18982926
-3.5471733	项目	-0.20119838
-3.7314367	工作人员	-0.16171758
-4.057948	身体健康	-0.1736951
-4.4968524	实行	-0.15006147
-3.7314367	一项	-0.16660954
-4.4968524	社会保障	-0.15006147
-3.3657184	通过	-0.18536337
-3.8647041	享受	-0.16340852
-3.013106	规定	-0.33805138
-4.335387	免费	-0.15006147
-3.7314367	指自	-0.20346555
-4.057948	29	-0.16886437
-4.335387	闰年	-0.15006147
-4.4968524	时候	-0.15006147
-3.7929785	28	-0.1710047
-4.4968524	刑法	-0.15006147
-4.4968524	鸦片	-0.15006147
-4.4968524	海洛因	-0.15006147
-4.4968524	甲基苯丙胺	-0.15006147
-4.4968524	冰毒	-0.15006147
-4.4968524	吗啡	-0.15006147
-4.4968524	大麻	-0.15006147
-4.4968524	可卡因	-0.15006147
-4.057948	管制	-0.16886437
-3.9506652	能够	-0.16886437
-4.4968524	使人	-0.15006147
-4.057948	形成	-0.15006147
-4.2007446	瘾	-0.16886437
-4.4968524	癖	-0.15006147
-4.4968524	麻醉药品	-0.15006147
-4.4968524	精神药品	-0.15006147
-4.335387	开具	-0.18186767
-3.125181	使用	-0.19055775
-4.335387	含有	-0.15006147
-4.4968524	成分	-0.15006147
-3.8647041	处方	-0.16171758
-3.4182055	药品	-0.20569609
-4.4968524	经检测	-0.15006147
-3.2200756	鉴定	-0.3159935
-4.4968524	车辆驾驶	-0.15006147
-3.9506652	每百	-0.48991778
-4.4968524	毫升	-0.15006147
-3.5864363	血液	-0.19189773
-3.8647041	酒精	-0.17717882
-4.4968524	含量	-0.15006147
-3.7929785	公安机关	-0.6360458
-4.335387	交通管理	-0.1986892
-4.2007446	道路交通	-0.18186767
-4.4968524	安全法	-0.15006147
-3.7314367	认定	-0.1644524
-4.2007446	饮酒	-0.18186767
-3.5864363	醉酒	-0.28726155
-4.2007446	准	-0.18186767
-4.057948	驾车	-0.16567343
-4.4968524	相符合	-0.15006147
-3.8647041	车辆	-0.17976974
-3.9506652	持	-0.22707789
-3.9506652	审验	-0.22283313
-3.9506652	合格	-0.19065052
-4.057948	学习	-0.1736951
-4.4968524	教练员	-0.15006147
-4.335387	随车	-0.15006147
-4.057948	指导	-0.1736951
-4.2007446	路线	-0.16886437
-3.7314367	登记	-0.16886437
-4.057948	按时	-0.1736951
-3.5471733	检验	-0.20973298
-3.3416765	法律	-0.30154055
-4.057948	法规	-0.20346555
-3.9506652	允许	-0.16340852
-3.629605	医学	-0.17590879
-3.8647041	权利	-0.16340852
-3.5111675	订立	-0.25966993
-4.335387	若有	-0.15006147
-4.335387	组成	-0.15006147
-3.7314367	电子	-0.39276138
-4.4968524	联	-0.15006147
-4.335387	复印件	-0.15006152
-4.335387	声明	-0.1986892
-4.2007446	附贴	-0.26806906
-3.7929785	批单	-0.1785802
-4.4968524	他	-0.15006147
-3.7929785	协议	-0.19458435
-4.335387	若该	-0.1986892
-4.2007446	而致	-0.15006152
-3.071775	残疾	-0.47415453
-4.335387	旅游	-0.15006152
-3.8647041	发生意外	-0.4784659
-3.677543	自该	-0.20860593
-4.335387	九十天	-0.15006152
-3.5864363	人身保险	-0.38908243
-3.071775	伤残	-0.38427338
-3.5864363	评定	-0.1777247
-4.4968524	代码	-0.15006147
-4.335387	列	-0.15006152
-4.2007446	标准规定	-0.18186767
-3.5864363	结果	-0.16171758
-4.2007446	应该	-0.15006152
-3.7314367	乘以	-0.20275208
-4.057948	两处	-0.23542787
-3.9506652	首先	-0.18186767
-4.335387	各处	-0.1986892
-3.629605	分别	-0.16567343
-2.9331365	如果	-0.37996235
-4.4968524	几处	-0.15006147
-4.335387	最重	-0.15006147
-3.8647041	最终	-0.22283313
-4.4968524	结论	-0.15006147
-3.3911695	相同	-0.47601584
-3.7314367	原	-0.1710047
-4.335387	晋升	-0.15006147
-4.4968524	一级	-0.15006147
-4.2007446	第一级	-0.15006147
-3.3188958	部位	-0.22487193
-4.4968524	晋级	-0.15006147
-4.2007446	规则	-0.1736951
-3.5111675	等于	-0.17230463
-4.2007446	斗殴	-0.18186767
-4.335387	伤	-0.15006147
-3.447037	潜水	-0.28535068
-4.2007446	跳伞	-0.23897421
-3.8647041	攀岩	-0.25794193
-3.3911695	运动	-0.21688049
-3.5111675	探险	-0.29350635
-3.2027493	活动	-0.2730762
-3.8647041	武术比赛	-0.24389873
-4.335387	摔跤	-0.18851829
-4.335387	比赛	-0.15006147
-3.5111675	特技表演	-0.30299115
-4.335387	赛马	-0.1986892
-4.057948	赛车	-0.20346555
-4.2007446	高风险	-0.19140007
-3.5864363	猝死	-0.235325
-4.2007446	过敏	-0.1736951
-4.2007446	食物中毒	-0.22283313
-4.057948	按日	-0.1986892
-3.5471733	未成年人	-0.52776474
-3.5111675	限制	-0.18828955
-4.4968524	成年	-0.15006147
-4.057948	总和	-0.16886437
-3.3416765	不得	-0.31450626
-4.335387	中国保险监督管理委员会	-0.15006147
-4.2007446	凭证	-0.17669508
-4.335387	十四日	-0.15006147
-3.7314367	维持	-0.22361627
-3.3657184	生命	-0.35689774
-3.629605	必要	-0.34564957
-3.8647041	日常生活	-0.19719693
-4.4968524	全需	-0.15006147
-3.9506652	他人	-0.16567343
-4.4968524	扶助	-0.15006152
-4.2007446	系指	-0.15006152
-4.2007446	食物	-0.15006147
-4.335387	摄取	-0.15006152
-4.335387	大小便	-0.15006147
-4.4968524	始末	-0.15006147
-4.4968524	穿	-0.15006147
-4.4968524	脱衣服	-0.15006147
-4.4968524	起居	-0.15006147
-4.4968524	步行	-0.15006147
-4.4968524	入浴	-0.15006147
-4.335387	皆	-0.15006147
-4.4968524	不能自己	-0.15006147
-3.1112013	需要	-0.17161308
-3.5471733	见	-0.16973843
-3.677543	附表	-0.24109592
-3.677543	自驾车	-0.26409063
-3.8647041	未满	-0.20346555
-4.335387	七十	-0.1986892
-4.335387	时因	-0.1986892
-3.447037	乘坐	-0.40729105
-3.629605	倍	-0.24891554
-3.629605	非因	-0.7909478
-4.335387	125%	-0.15006147
-3.3657184	其中	-0.20217037
-4.057948	乘	-0.39300779
-4.335387	表所	-0.15006147
-3.2027493	一次	-0.21581529
-4.2007446	水陆	-0.26806906
-3.4779196	公共交通	-0.39948985
-3.7314367	航空	-0.36656237
-3.677543	受	-0.1702391
-3.4779196	影响	-0.17890437
-4.2007446	十五	-0.18186767
-4.2007446	十六	-0.18186767
-4.2007446	十七	-0.18186767
-4.2007446	十八	-0.18186767
-4.2007446	因患	-0.15006152
-4.2007446	置身于	-0.15006152
-3.677543	飞机	-0.22060701
-4.4968524	空中	-0.15006147
-4.335387	运输工具	-0.15006147
-3.276634	交通工具	-0.26108202
-3.9506652	乘客	-0.20506938
-3.7314367	搭乘	-0.24295442
-3.0976574	完全	-0.3234992
-3.677543	进入	-0.16102318
-4.2007446	舱门	-0.2116604
-4.2007446	之时	-0.26806906
-4.335387	走出	-0.15006147
-3.9506652	时止	-0.25476345
-4.335387	一段时间	-0.15006147
-4.4968524	陆路	-0.15006147
-4.4968524	水路	-0.15006147
-4.4968524	车门	-0.15006147
-3.629605	国务院	-0.37373054
-4.335387	监督管理	-0.15006147
-4.2007446	错误	-0.16171758
-4.335387	申报	-0.1986892
-3.8647041	真实	-0.29614058
-3.7929785	并且	-0.17208986
-4.057948	但是	-0.21695937
-4.057948	逾	-0.23542787
-3.4182055	如实	-0.8374879
-3.7929785	告知	-0.18013918
-3.629605	性别	-0.1736951
-4.057948	致使	-0.1593612
-4.2007446	实缴	-0.23897421
-3.677543	少于	-0.17976974
-4.335387	更正	-0.15006147
-3.8647041	补缴	-0.42107934
-3.9506652	多于	-0.2116604
-4.4968524	收	-0.15006147
-3.5471733	无息	-0.37030238
-3.8647041	日止	-0.29614058
-3.1860876	如何	-0.46705562
-3.5111675	作出	-0.34863406
-3.7929785	核定	-0.1702391
-4.4968524	三日	-0.15006147
-4.057948	内向	-0.1736951
-3.9506652	发出	-0.33233786
-4.057948	拒绝	-0.15006147
-4.4968524	理由	-0.15006147
-3.629605	数额	-0.22913752
-2.8815467	确定	-0.4013107
-3.9506652	已有	-0.16886437
-4.4968524	先予	-0.15006147
-4.2007446	第六	-0.26806906
-3.7314367	事项	-0.15468642
-4.057948	第十七条	-0.21695937
-3.1396255	明确	-0.59981257
-3.7929785	内容	-0.1777247
-4.2007446	第四	-0.26806906
-4.4968524	哪些	-0.15006147
-3.5864363	权益	-0.16963948
-4.4968524	净额	-0.15006152
-4.335387	十九	-0.15006147
-3.8647041	足以	-0.1736951
-4.4968524	缴应	-0.15006147
-3.8647041	不足以	-0.22015338
-3.9506652	附有	-0.16567343
-3.1860876	均	-0.23924376
-3.629605	单独	-0.1839034
-3.3657184	恢复	-0.1925067
-4.335387	二十	-0.15006147
-3.5864363	双方	-0.22998537
-3.7314367	达成	-0.20874427
-3.4779196	满	-0.18547775
-3.7314367	不可	-0.16171758
-4.4968524	百分之七十	-0.15006152
-3.629605	人民币	-0.1644524
-4.4968524	一百元	-0.15006147
-3.4779196	全部	-0.1593612
-3.677543	偿还	-0.17841247
-4.4968524	加上	-0.15006147
-3.9506652	最近	-0.22283313
-3.7929785	一期	-0.21043359
-4.2007446	第五	-0.26806906
-4.4968524	一人	-0.15006152
-4.4968524	或数	-0.15006147
-4.2007446	人为	-0.16886437
-4.4968524	为数	-0.15006147
-4.057948	人时	-0.39300779
-3.629605	受益	-0.26921996
-3.8647041	顺序	-0.1736951
-4.057948	份额	-0.17717882
-4.4968524	未确定	-0.15006147
-4.2007446	相等	-0.1736951
-4.2007446	受益权	-0.1736951
-4.2007446	第二十三条	-0.23897421
-4.4968524	以此	-0.15006147
-3.7929785	计息	-0.21667014
-4.057948	按年	-0.1736951
-3.7929785	复利	-0.20250605
-3.8647041	汽车	-0.15006152
-4.4968524	国家标准	-0.15006147
-4.4968524	GB	-0.15006147
-4.4968524	T3730	-0.15006147
-4.057948	2001	-0.23542787
-4.4968524	乘用车	-0.15006147
-3.3657184	定义	-0.2547097
-3.447037	主要	-0.18492489
-4.4968524	载运	-0.15006147
-4.4968524	随身行李	-0.15006147
-3.8647041	物品	-0.16567343
-4.057948	驾驶员	-0.15006147
-4.335387	座位	-0.15006147
-3.8647041	在内	-0.4115191
-4.4968524	最多	-0.15006147
-4.2007446	载客	-0.15006147
-2.961428	收取	-0.28947154
-3.7929785	目的	-0.194104
-4.335387	领有	-0.15006152
-3.5111675	客运	-0.20346555
-4.335387	营业执照	-0.15006147
-3.5471733	固定	-0.22807568
-3.629605	营运	-0.19331357
-4.4968524	线路	-0.15006147
-4.057948	收费	-0.1736951
-4.335387	陆地	-0.15006147
-4.2007446	水上	-0.15006152
-4.057948	自行	-0.15006147
-4.057948	租赁	-0.1736951
-4.2007446	时须	-0.15006147
-4.2007446	遗产	-0.2116604
-4.2007446	由本	-0.18186767
-4.4968524	继承法	-0.15006147
-3.3657184	履行	-0.21550652
-3.3911695	义务	-0.1995132
-4.057948	不明	-0.1736951
-3.3657184	无法	-0.16795032
-4.4968524	先于	-0.15006147
-3.297251	丧失	-0.2680168
-4.2007446	放弃	-0.15006152
-4.335387	先后顺序	-0.1986892
-4.4968524	推定	-0.15006152
-3.7314367	先	-0.18594874
-4.4968524	未遂	-0.15006147
-4.2007446	第十五条	-0.20506938
-4.057948	户籍	-0.31815547
-3.7314367	书面通知	-0.15850747
-3.4779196	认可	-0.7794959
-4.4968524	资质	-0.15006147
-4.2007446	附	-0.15006147
-3.2569513	出具	-0.6135873
-4.4968524	鉴定书	-0.15006147
-3.677543	完整	-0.5400042
-4.335387	卫生	-0.1736951
-4.4968524	行政部门	-0.15006152
-4.057948	公安部门	-0.16886437
-3.5111675	死亡	-0.22823118
-3.5111675	宣告	-0.68613225
-4.057948	人民法院	-0.16886437
-4.335387	承认	-0.15006147
-4.057948	司法	-0.15006147
-4.4968524	裁判	-0.15006147
-4.335387	文书	-0.15006147
-4.335387	又	-0.15006152
-4.335387	生还	-0.15006147
-3.9506652	三十日	-0.33233786
-4.2007446	第十六条	-0.15006147
-4.4968524	五日	-0.15006147
-4.4968524	复杂	-0.15006152
-4.4968524	资料完整	-0.15006147
-3.5111675	当地	-0.15585044
-4.335387	十日	-0.15006147
-3.8647041	前款	-0.39300779
-3.2027493	赔偿	-0.25465128
-4.335387	时会	-0.15006152
-3.1396255	引起	-0.4677217
-4.057948	注意	-0.33233786
-4.335387	口头	-0.1986892
-4.335387	未作	-0.1986892
-3.4182055	就	-0.20625213
-4.335387	询问	-0.1986892
-4.2007446	重大过失	-0.1736951
-3.4182055	保险费率	-0.38024342
-4.4968524	解除权	-0.15006147
-4.4968524	事由	-0.15006147
-3.9506652	行使	-0.15006147
-4.4968524	消灭	-0.15006147
-2.7207713	严重	-0.29181576
-4.2007446	第十八条	-0.21695937
-4.335387	填明	-0.18186767
-4.2007446	第十九条	-0.15006152
-4.335387	联系地址	-0.1986892
-3.677543	为了	-0.2708283
-4.4968524	合法权益	-0.15006147
-3.9506652	住所	-0.16340852
-4.057948	通讯地址	-0.1710047
-3.7929785	电话	-0.28977996
-3.5864363	联系方式	-0.6747606
-4.4968524	未以	-0.15006147
-4.057948	发送	-0.39300779
-4.057948	送达	-0.16340852
-4.2007446	第二十条	-0.2116604
-4.2007446	第二十一条	-0.16886437
-3.677543	货币	-0.25461805
-4.4968524	适用法律	-0.15006147
-4.4968524	保险法	-0.15006147
-4.4968524	管辖	-0.15006147
-4.335387	诠释	-0.15006147
-3.9506652	相	-0.18851829
-4.4968524	抵触	-0.15006147
-3.9506652	条文	-0.21695937
-4.2007446	第二十二条	-0.18851829
-3.2027493	争议	-0.62591875
-3.7314367	过程	-0.42107934
-3.5864363	协商	-0.29270408
-4.2007446	解决	-0.16886437
-3.629605	仲裁	-0.17590879
-3.7929785	法院	-0.167121
-4.335387	提起	-0.15006147
-4.335387	诉讼	-0.15006147
-4.2007446	指以	-0.15006147
-4.335387	辅助	-0.15006147
-4.335387	器材	-0.1986892
-4.4968524	江	-0.15006147
-4.4968524	河	-0.15006147
-4.4968524	湖	-0.15006147
-4.335387	海	-0.1986892
-4.4968524	水库	-0.15006147
-4.4968524	运河	-0.15006147
-4.4968524	水域	-0.15006147
-4.335387	水下	-0.15006147
-4.4968524	攀登	-0.15006147
-4.335387	悬崖	-0.1986892
-4.4968524	楼宇	-0.15006147
-4.4968524	外墙	-0.15006147
-4.4968524	人造	-0.15006147
-4.4968524	冰崖	-0.15006147
-4.4968524	冰山	-0.15006147
-4.4968524	明知	-0.15006147
-4.335387	某种	-0.15006147
-3.071775	特定	-0.6354302
-4.335387	自然	-0.15006147
-4.057948	失去	-0.1736951
-4.2007446	自己	-0.15006147
-4.4968524	置身其中	-0.15006147
-3.3911695	行为	-0.27037042
-4.2007446	江河	-0.26806906
-4.4968524	漂流	-0.15006147
-4.4968524	徒步	-0.15006147
-4.4968524	穿越	-0.15006147
-4.4968524	沙漠	-0.15006147
-4.335387	人迹罕至	-0.1986892
-4.4968524	原始森林	-0.15006147
-4.335387	指两人	-0.18186767
-4.335387	两人	-0.1986892
-4.335387	对抗性	-0.15006147
-4.4968524	柔道	-0.15006147
-4.4968524	空手道	-0.15006147
-4.4968524	跆拳道	-0.15006147
-4.4968524	散打	-0.15006147
-4.4968524	拳击	-0.15006147
-3.629605	各种	-0.15585044
-4.4968524	拳术	-0.15006147
-4.335387	器械	-0.15006147
-4.057948	马术	-0.23542787
-4.4968524	杂技	-0.15006147
-4.335387	驯兽	-0.15006147
-3.4779196	特殊	-0.5730462
-4.4968524	技能	-0.15006147
-3.8647041	表演	-0.17717882
-3.7314367	余额	-0.15905806
-4.335387	双目	-0.15006147
-3.297251	永久	-0.6164446
-4.057948	失明	-0.16886437
-4.4968524	二两	-0.15006147
-3.629605	上肢	-0.20415217
-4.057948	腕关节	-0.18186767
-4.057948	两	-0.16886437
-3.677543	下肢	-0.18492489
-3.9506652	踝关节	-0.1986892
-3.5471733	缺失	-0.18520385
-4.4968524	一目	-0.15006147
-4.4968524	五一	-0.15006147
-4.4968524	目	-0.15006147
-3.9506652	四肢	-0.18186767
-3.3416765	关节	-0.1807905
-3.5111675	机能	-0.32511148
-3.5864363	咀嚼	-0.517963
-4.057948	吞咽	-0.1710047
-3.9506652	中枢神经	-0.48991778
-4.2007446	胸	-0.15006147
-3.7929785	腹部	-0.4784659
-4.4968524	脏器	-0.15006147
-4.335387	极度	-0.15006147
-3.5111675	障碍	-0.19458435
-3.3188958	终身	-0.39512014
-4.335387	所谓	-0.1986892
-3.5471733	仍然	-0.2808072
-3.677543	眼球	-0.30591595
-4.2007446	摘除	-0.1736951
-3.7929785	明显	-0.16340852
-4.4968524	复原	-0.15006147
-4.2007446	不在此限	-0.1736951
-4.335387	辨别	-0.15006147
-4.4968524	明暗	-0.15006147
-4.4968524	或仅	-0.15006147
-4.4968524	眼前	-0.15006147
-4.4968524	手动	-0.15006147
-4.335387	最佳	-0.15006147
-3.629605	矫正视力	-0.27142766
-4.335387	国际标准	-0.1986892
-4.2007446	视力表	-0.1736951
-4.335387	0.02	-0.15006147
-3.7314367	视野	-0.25461805
-4.4968524	半径	-0.15006147
-3.4779196	小于	-0.1839034
-3.8647041	度	-0.1785802
-4.335387	眼科	-0.15006152
-4.4968524	系	-0.15006147
-4.2007446	指关节	-0.18186767
-4.335387	僵硬	-0.18186767
-3.9506652	麻痹	-0.16171758
-4.2007446	随	-0.15006152
-3.9506652	意识	-0.16567343
-3.3911695	由于	-0.16003314
-3.4779196	以外	-0.38908243
-4.335387	器质	-0.1986892
-4.2007446	以致	-0.15006147
-4.335387	流质食物	-0.15006147
-3.4182055	状态	-0.1593612
-4.4968524	中宏长	-0.15006147
-3.5864363	保	-0.15006147
-4.4968524	福星	-0.15006147
-2.6167188	重大	-1.0474117
-3.677543	保险条款	-0.18535952
-4.2007446	目录	-0.15006147
-4.335387	第二十四条	-0.1986892
-4.2007446	第二十五条	-0.26806906
-4.335387	第二十六条	-0.1986892
-4.335387	所属	-0.15006147
-4.4968524	组别	-0.15006152
-4.335387	第二十七条	-0.1986892
-3.1700416	轻症	-0.8893161
-4.2007446	第二十八条	-0.26806906
-3.9506652	术语	-0.18851829
-4.2007446	2015	-0.15006152
-4.4968524	003	-0.15006147
-3.8647041	撤销	-0.16567343
-4.4968524	基本保障	-0.15006147
-4.2007446	所缴	-0.18186767
-3.5111675	之后	-0.29046026
-3.677543	三项	-0.17183074
-4.4968524	最大者	-0.15006147
-3.2200756	首次	-0.29057485
-3.276634	出现	-0.15850747
-3.5111675	症状	-0.2034129
-3.125181	确诊	-0.2311742
-4.335387	E	-0.1986892
-3.7929785	组	-0.42107934
-4.2007446	120%	-0.15006147
-3.8647041	本项	-0.19065052
-4.057948	末期	-0.15006147
-3.629605	第二次	-0.33233786
-4.4968524	一周年	-0.15006147
-4.4968524	四组	-0.15006147
-3.3911695	一种	-0.17755096
-4.2007446	第三次	-0.18186767
-4.4968524	三组	-0.15006147
-2.9065762	豁免	-0.577927
-3.4182055	日后	-0.27717865
-4.2007446	第一个	-0.15006152
-3.7314367	白血病	-0.15850747
-3.5471733	关爱	-0.55579346
-4.2007446	所患	-0.16171758
-4.335387	期后	-0.15493123
-3.7929785	70	-0.20346555
-3.677543	20%	-0.16766502
-4.4968524	既	-0.15006147
-4.2007446	阶段	-0.15006152
-4.4968524	拒捕	-0.15006147
-3.013106	感染	-0.43914768
-3.3911695	艾滋病	-0.2412366
-3.677543	病毒	-0.25296557
-3.4779196	申请人	-0.2031831
-3.7929785	病历	-0.16171758
-3.629605	病理	-0.1868647
-4.2007446	科学	-0.18186767
-3.629605	方法	-0.22641328
-3.5471733	证明文件	-0.32213563
-4.335387	日均	-0.15006147
-4.4968524	付清	-0.15006147
-3.0356317	减少	-0.37246996
-3.7929785	最低	-0.34564957
-3.7929785	保额	-0.16408679
-4.335387	加费	-0.1986892
-4.335387	面	-0.1986892
-3.8647041	出生	-0.18601237
-4.2007446	书	-0.1736951
-4.2007446	期指	-0.15006152
-4.4968524	第九	-0.15006147
-3.0593898	恶性肿瘤	-0.28726897
-3.5471733	恶性	-0.3070085
-3.677543	细胞	-0.17919931
-3.3657184	进行性	-0.20265365
-4.335387	增长	-0.15006147
-4.335387	扩散	-0.15006147
-4.057948	浸润	-0.15006147
-3.8647041	破坏	-0.16567343
-3.9506652	周围	-0.16886437
-3.4779196	正常	-0.16886434
-3.2200756	组织	-0.2425968
-3.447037	血管	-0.21686074
-4.057948	淋巴管	-0.1736951
-4.335387	体腔	-0.15006147
-3.7929785	转移	-0.1736951
-3.4182055	其它	-0.16622193
-3.7314367	病理学	-0.31358013
-4.4968524	ICD	-0.15006147
-4.335387	范畴	-0.1986892
-3.8647041	原位癌	-0.1593612
-3.9506652	相当于	-0.38510224
-4.4968524	Binet	-0.15006147
-3.8647041	A	-0.16340852
-3.3188958	慢性	-0.20022614
-4.4968524	淋巴细胞	-0.15006147
-4.4968524	AnnArbor	-0.15006147
-3.9506652	I	-0.33233786
-4.4968524	何杰金	-0.15006147
-4.2007446	氏病	-0.15006147
-3.8647041	皮肤癌	-0.1710047
-4.4968524	黑色素瘤	-0.15006147
-4.335387	TNM	-0.1986892
-4.4968524	T1N0M0	-0.15006147
-4.2007446	更	-0.18186767
-4.4968524	轻	-0.15006147
-4.4968524	前列腺癌	-0.15006147
-3.2381222	急性	-0.3789214
-4.4968524	心肌梗塞	-0.15006147
-3.2027493	指因	-0.31022334
-3.3416765	冠状动脉	-0.2560306
-4.335387	阻塞	-0.15006147
-4.2007446	区域	-0.15006152
-4.335387	供血	-0.15006147
-3.629605	不足	-0.15468642
-3.8647041	心肌	-0.18186767
-3.629605	坏死	-0.22015338
-3.297251	至少	-0.17075448
-3.9506652	典型	-0.16886437
-3.5471733	临床表现	-0.2808072
-3.9506652	例如	-0.22404073
-4.4968524	胸痛	-0.15006147
-4.335387	新近	-0.1986892
-4.057948	心电图	-0.16886437
-3.447037	改变	-0.16869073
-4.057948	酶	-0.16886437
-4.2007446	肌钙蛋白	-0.26806906
-4.4968524	意义	-0.15006147
-3.629605	升高	-0.24389873
-3.7929785	呈	-0.16340852
-4.4968524	动态性	-0.15006147
-3.8647041	变化	-0.20506938
-3.8647041	发病	-0.16567343
-3.4779196	90	-0.3064246
-3.8647041	天后	-0.21043359
-3.5471733	证实	-0.26463246
-4.335387	左心室	-0.15006147
-3.0242229	功能	-0.2128109
-4.335387	射血	-0.1986892
-4.4968524	分数	-0.15006147
-3.8647041	脑中风	-0.56909907
-4.2007446	后遗症	-0.15779734
-3.9506652	脑血管	-0.16886437
-3.4779196	病变	-0.31239527
-4.057948	出血	-0.15006147
-4.335387	栓塞	-0.15006152
-4.335387	梗塞	-0.1986892
-3.5471733	神经系统	-0.2424087
-3.7929785	永久性	-0.19677149
-3.7314367	功能障碍	-0.1843117
-3.3911695	180	-0.4697283
-4.2007446	遗留	-0.15006147
-3.5111675	一肢	-0.25197718
-3.2569513	肢体	-0.31022334
-3.4182055	语言	-0.6218349
-3.5864363	自主	-0.40795505
-3.9506652	生活	-0.16567343
-3.677543	独立	-0.23170622
-3.7929785	完成	-0.1604069
-3.5864363	六项	-0.65394753
-3.5864363	器官	-0.1736951
-3.7929785	移植术	-0.18205494
-3.447037	造血	-0.4350002
-4.2007446	干细胞	-0.1593612
-3.5864363	衰竭	-0.21686074
-3.5864363	实施	-0.26026037
-3.677543	肾脏	-0.23170622
-3.629605	肝脏	-0.15006147
-3.297251	心脏	-0.32436278
-4.2007446	肺脏	-0.18186767
-4.335387	异体	-0.18186767
-4.2007446	移植手术	-0.23542787
-3.5864363	损害	-0.17175265
-3.4182055	骨髓	-0.2616282
-4.2007446	外周血	-0.1736951
-4.4968524	脐	-0.15006147
-3.9506652	血	-0.16567343
-4.335387	搭桥术	-0.15006147
-4.4968524	或称	-0.15006147
-4.057948	旁路	-0.23897421
-4.2007446	冠心病	-0.15006152
-4.4968524	开胸	-0.15006152
-3.5864363	移植	-0.16171758
-4.335387	支架	-0.15006152
-4.2007446	植入术	-0.15006147
-4.4968524	心导管	-0.15006147
-4.335387	球囊	-0.1986892
-4.2007446	扩张	-0.1736951
-3.8647041	术	-0.20346555
-4.057948	激光	-0.1736951
-4.4968524	射频	-0.15006147
-4.4968524	它	-0.15006147
-4.057948	非开	-0.39300779
-3.8647041	介入	-0.4784659
-4.4968524	腔镜	-0.15006147
-3.629605	终末期	-0.44541234
-4.335387	肾病	-0.15006147
-3.7929785	肾功能	-0.19140007
-4.335387	尿毒症	-0.1986892
-4.335387	指双	-0.1986892
-4.2007446	不可逆性	-0.15006147
-4.4968524	规律性	-0.15006147
-4.057948	透析	-0.16886437
-3.5471733	多个	-0.2878322
-3.7929785	两个	-0.16171758
-4.335387	近端	-0.15006147
-4.4968524	靠近	-0.15006147
-3.8647041	躯干	-0.18186767
-4.4968524	端	-0.15006147
-4.4968524	完全性	-0.15006147
-4.4968524	断离	-0.15006147
-4.057948	亚急性	-0.1736951
-3.071775	重症	-0.5528953
-4.057948	肝炎	-0.15719734
-3.629605	病毒感染	-0.16171758
-3.7929785	弥漫性	-0.1710047
-3.8647041	肝功能	-0.31815547
-4.4968524	且经	-0.15006147
-4.335387	血清学	-0.15006152
-4.335387	病毒学	-0.1986892
-3.8647041	重度	-0.19224639
-4.057948	黄疸	-0.16886437
-4.4968524	迅速	-0.15006147
-4.2007446	加重	-0.18186767
-4.335387	肝性	-0.1986892
-4.335387	脑病	-0.15006147
-4.2007446	B超	-0.21695937
-3.9506652	影像学	-0.48991778
-3.629605	显示	-0.15850747
-4.4968524	体积	-0.15006147
-4.4968524	急速	-0.15006147
-3.7929785	萎缩	-0.15006147
-4.057948	恶化	-0.15006147
-3.7314367	良性	-0.4430942
-4.057948	脑肿瘤	-0.1604069
-4.4968524	指脑	-0.15006147
-4.4968524	良性肿瘤	-0.15006147
-4.2007446	颅内	-0.18186767
-4.335387	压	-0.15006152
-4.2007446	增高	-0.18186767
-4.335387	视神经	-0.15006147
-4.4968524	乳头	-0.15006147
-4.335387	水肿	-0.15006147
-3.9506652	癫痫	-0.15006147
-4.335387	感觉	-0.15006147
-4.335387	危及	-0.15006147
-4.057948	头颅	-0.39300779
-4.335387	断层扫描	-0.1986892
-3.8647041	CT	-0.16567343
-4.335387	核磁共振	-0.18186767
-4.335387	MRI	-0.15006147
-4.335387	正电子	-0.1986892
-4.4968524	发射	-0.15006147
-4.335387	PET	-0.15006147
-4.2007446	开颅	-0.1736951
-3.2381222	切除	-0.288503
-4.2007446	放射治疗	-0.23542787
-3.7314367	脑垂体	-0.5364579
-3.8647041	瘤	-0.1593612
-3.5864363	脑	-0.2521509
-4.335387	囊肿	-0.1736951
-3.7929785	性疾病	-0.20346555
-3.8647041	脑炎	-0.19065052
-3.8647041	脑膜炎	-0.18601237
-3.7929785	深度	-0.30591595
-3.8647041	昏迷	-0.17183074
-4.335387	外界	-0.15006147
-3.9506652	刺激	-0.15006152
-3.9506652	体内	-0.16886437
-4.335387	需求	-0.15006152
-4.057948	反应	-0.23542787
-4.4968524	格拉斯哥	-0.15006147
-3.8647041	分级	-0.15006147
-4.4968524	Glasgowcomascale	-0.15006147
-3.7929785	分	-0.1604069
-4.4968524	呼吸机	-0.15006147
-4.4968524	96	-0.15006147
-3.8647041	酗酒	-0.35826215
-4.335387	药物滥用	-0.1986892
-3.5864363	双耳	-0.5313105
-4.335387	失聪	-0.1736951
-3.7929785	听力	-0.1736951
-4.4968524	可逆	-0.15006147
-4.2007446	赫兹	-0.15006152
-3.8647041	1000	-0.25476345
-3.8647041	2000	-0.20506938
-4.335387	语音	-0.15006147
-4.4968524	频率	-0.15006147
-3.8647041	平均	-0.16340852
-4.4968524	听阈	-0.15006147
-3.4779196	大于	-0.2818349
-4.4968524	分贝	-0.15006147
-4.4968524	纯音	-0.15006147
-3.9506652	测试	-0.15006147
-4.4968524	声	-0.15006147
-4.4968524	导抗	-0.15006147
-3.8647041	检测	-0.16171758
-4.335387	听觉	-0.1986892
-4.4968524	诱发电位	-0.15006147
-3.1860876	理赔	-0.25126076
-4.057948	证据	-0.15006152
-3.7314367	双目失明	-0.27309892
-3.8647041	双眼	-0.2116604
-3.5471733	视力	-0.26307425
-4.335387	中较	-0.15006147
-4.2007446	好	-0.15006147
-4.335387	眼须	-0.1986892
-4.4968524	换算	-0.15006147
-3.4182055	主动脉	-0.32080486
-4.4968524	指胸	-0.15006147
-4.4968524	腹	-0.15006147
-4.335387	分支	-0.15006147
-3.5111675	动脉	-0.20293222
-4.2007446	成形术	-0.15006147
-4.4968524	二十二	-0.15006147
-4.335387	失	-0.15006147
-4.4968524	代偿	-0.15006147
-3.7314367	持续性	-0.1710047
-4.2007446	腹水	-0.18186767
-4.335387	充血性	-0.1986892
-4.335387	脾肿大	-0.15006147
-4.057948	伴	-0.15006147
-4.335387	脾	-0.15006147
-4.4968524	亢进	-0.15006147
-4.335387	食管	-0.1986892
-4.4968524	胃底	-0.15006147
-4.2007446	静脉曲张	-0.15006152
-4.335387	二十三	-0.1986892
-4.2007446	阿尔茨海默	-0.23542787
-4.335387	病指	-0.15006147
-4.2007446	大脑	-0.15006147
-4.2007446	智能	-0.1736951
-4.4968524	衰退	-0.15006147
-4.335387	认知	-0.15006147
-4.4968524	社交能力	-0.15006147
-4.335387	减退	-0.16171758
-3.7929785	监护	-0.1604069
-4.335387	神经官能症	-0.1986892
-4.2007446	精神疾病	-0.15006152
-3.9506652	脑损伤	-0.167121
-3.9506652	头部	-0.20506938
-4.4968524	机械性	-0.15006147
-4.4968524	外力	-0.15006147
-3.3657184	损伤	-0.31152472
-3.125181	专科医生	-0.3770262
-4.057948	病情	-0.15006152
-3.7929785	心脏起搏器	-0.19719693
-4.4968524	心律失常	-0.15006147
-3.447037	用	-0.17841247
-3.7314367	依赖	-0.16567343
-4.4968524	放置	-0.15006147
-4.4968524	必要性	-0.15006147
-3.8647041	受损	-0.15779734
-4.4968524	虽然	-0.15006147
-4.2007446	眼	-0.15006147
-4.4968524	0.1	-0.15006147
-4.335387	瓣膜	-0.15006147
-4.2007446	心血管	-0.15006152
-4.4968524	超声波	-0.15006147
-4.335387	胸壁	-0.1986892
-4.335387	打孔	-0.15006152
-4.335387	内镜	-0.15006147
-4.2007446	经皮经	-0.26806906
-4.4968524	导管	-0.15006147
-4.057948	置换	-0.15006147
-3.7314367	修复	-0.1842312
-3.5111675	瘫痪	-0.20496278
-4.2007446	两肢	-0.1736951
-4.4968524	每肢	-0.15006147
-4.057948	三大	-0.39300779
-4.4968524	两大	-0.15006147
-3.5111675	Ⅲ	-0.4926957
-3.276634	烧伤	-0.26651728
-3.5471733	面积	-0.23619047
-3.629605	全身	-0.2446872
-4.057948	体表	-0.23542787
-4.4968524	九分	-0.15006147
-4.057948	法	-0.16567343
-3.5471733	原发性	-0.23529926
-4.057948	肺动脉	-0.1736951
-4.2007446	高压	-0.16340852
-4.335387	压力	-0.15006147
-4.4968524	体力	-0.15006147
-4.335387	受限	-0.1736951
-4.335387	美国纽约	-0.15006147
-3.9506652	心脏病	-0.15006147
-4.335387	学会	-0.15006147
-4.057948	心功能	-0.15006147
-4.2007446	IV	-0.26806906
-3.5864363	级	-0.2888176
-4.335387	静息	-0.1986892
-4.4968524	30mmHg	-0.15006147
-4.057948	运动神经元	-0.18851829
-4.2007446	病是	-0.18186767
-4.2007446	一组	-0.15006147
-3.7929785	变性	-0.16171758
-4.2007446	脊	-0.26806906
-4.2007446	肌萎缩	-0.15006147
-3.7314367	症	-0.17278886
-4.2007446	延髓	-0.15006152
-4.4968524	麻痹症	-0.15006147
-4.4968524	侧索	-0.15006147
-4.335387	硬化症	-0.15006152
-4.4968524	性侧	-0.15006147
-4.4968524	索	-0.15006147
-4.2007446	积极	-0.1736951
-2.9916914	12	-0.26885125
-4.2007446	声带	-0.18186767
-3.9506652	不受	-0.16171758
-3.677543	此	-0.1604069
-4.335387	现有	-0.1986892
-4.057948	手段	-0.17717882
-4.4968524	心理因素	-0.15006147
-3.5471733	所致	-0.32835162
-3.9506652	重型	-0.48991778
-4.2007446	再生	-0.26806906
-4.335387	障碍性	-0.15006147
-3.7929785	贫血	-0.21698786
-4.335387	中性	-0.1986892
-4.4968524	粒细胞	-0.15006147
-3.9506652	血小板	-0.16886437
-4.4968524	穿刺	-0.15006147
-3.7314367	活检	-0.1593612
-4.2007446	支持	-0.15006152
-4.4968524	象须	-0.15006147
-4.057948	具备	-0.16886437
-3.7929785	①	-0.17871076
-4.335387	绝对值	-0.1986892
-4.335387	≤	-0.15006152
-4.4968524	0.5	-0.15006147
-3.1545675	×	-0.22335649
-4.4968524	109	-0.15006147
-4.4968524	L	-0.15006147
-3.7929785	②	-0.18803532
-4.4968524	网织	-0.15006147
-4.335387	红细胞	-0.15006147
-3.9506652	<	-0.15006152
-3.9506652	1%	-0.16567343
-3.9506652	③	-0.16102318
-4.4968524	二十一	-0.15006147
-4.057948	开腹	-0.1986892
-4.4968524	修补	-0.15006147
-4.335387	病损	-0.15006147
-4.335387	二十五	-0.15006147
-4.4968524	帕金森病	-0.15006147
-4.335387	退行性	-0.15006147
-4.4968524	震颤麻痹	-0.15006147
-4.335387	共济失调	-0.15006147
-3.9506652	无法控制	-0.23897421
-4.057948	继发性	-0.1736951
-4.4968524	帕金森	-0.15006147
-3.4779196	综合征	-0.23363906
-3.3657184	种	-0.3645319
-4.335387	符合中国	-0.15006147
-4.2007446	保险行业	-0.26806906
-4.057948	协会	-0.16567343
-3.9506652	颁发	-0.33233786
-4.4968524	二十六	-0.15006147
-4.4968524	复发性	-0.15006147
-4.057948	胰腺炎	-0.15006152
-3.5864363	发作	-0.23525642
-4.2007446	三次	-0.15006152
-3.677543	胰腺	-0.19746788
-4.335387	不全	-0.15006147
-4.4968524	吸收	-0.15006147
-4.4968524	不良	-0.15006147
-4.4968524	需用	-0.15006147
-3.9506652	替代	-0.20506938
-4.4968524	三十七	-0.15006147
-4.2007446	肌无力	-0.15006147
-3.629605	神经	-0.15850747
-3.4182055	肌肉	-0.17549264
-4.4968524	接头	-0.15006147
-4.335387	传递	-0.15006147
-3.677543	自身	-0.23170622
-4.335387	免疫性	-0.1736951
-3.8647041	特征	-0.17717882
-4.4968524	局部	-0.15006147
-4.4968524	易于	-0.15006147
-4.4968524	疲劳	-0.15006147
-4.057948	无力	-0.1986892
-4.2007446	胸腺	-0.18186767
-4.057948	缓解	-0.15006147
-4.2007446	复发	-0.15006147
-4.4968524	交替	-0.15006147
-4.4968524	三十八	-0.15006147
-4.2007446	克隆病	-0.15006147
-4.4968524	肉芽肿	-0.15006147
-4.4968524	肠炎	-0.15006147
-4.4968524	特征性	-0.15006147
-4.4968524	组织学	-0.15006147
-4.4968524	瘘管	-0.15006147
-3.7929785	伴有	-0.1593612
-4.4968524	肠梗阻	-0.15006147
-4.335387	肠穿孔	-0.1986892
-4.4968524	三十九	-0.15006147
-3.629605	输血	-0.16567343
-4.2007446	人类	-0.26806906
-3.677543	免疫	-0.17590879
-4.057948	缺陷	-0.16886437
-3.629605	HIV	-0.19746788
-3.7929785	必需	-0.24295442
-3.7929785	中心	-0.16171758
-3.7929785	该项	-0.16171758
-4.2007446	属	-0.15006147
-4.335387	责任事故	-0.15006147
-4.4968524	终审	-0.15006147
-4.4968524	裁定	-0.15006147
-4.335387	合法经营	-0.15006147
-4.335387	执照	-0.1736951
-4.057948	不是	-0.15006147
-4.4968524	血友病	-0.15006147
-3.7929785	患者	-0.15006147
-4.335387	治愈	-0.15006152
-4.2007446	AIDS	-0.15006152
-4.335387	阻止	-0.15006147
-3.9506652	发现	-0.15006147
-3.3657184	以后	-0.18837123
-4.4968524	或能	-0.15006147
-4.4968524	防止	-0.15006147
-4.335387	研究	-0.15006147
-4.4968524	出来	-0.15006147
-4.2007446	予以	-0.15006152
-3.297251	赔付	-0.25637487
-4.4968524	传播方式	-0.15006147
-4.4968524	性传播	-0.15006147
-4.2007446	静脉注射	-0.18186767
-4.4968524	四十	-0.15006147
-3.677543	呼吸	-0.19224639
-4.057948	肺部	-0.18851829
-3.5111675	专科	-0.31825233
-4.335387	休息	-0.1986892
-4.335387	呼吸困难	-0.15006147
-4.335387	氧分压	-0.15006147
-4.4968524	PaO2	-0.15006147
-4.4968524	50mmHg	-0.15006147
-4.335387	动脉血	-0.15006147
-4.4968524	氧	-0.15006147
-4.4968524	饱和度	-0.15006147
-4.4968524	SaO2	-0.15006147
-4.335387	缺氧	-0.1986892
-4.2007446	输氧	-0.18186767
-4.4968524	四十一	-0.15006147
-4.057948	糖尿病	-0.15006152
-3.7314367	胰岛素	-0.15006147
-4.4968524	依赖型	-0.15006147
-4.335387	缺乏	-0.15006147
-4.4968524	糖	-0.15006147
-4.335387	脂肪	-0.15006147
-4.335387	蛋白质	-0.15006152
-3.9506652	代谢	-0.18851829
-3.8647041	综合症	-0.15006152
-4.4968524	外源性	-0.15006147
-3.9506652	机体	-0.16886437
-4.4968524	葡萄糖	-0.15006147
-4.057948	本病	-0.23542787
-4.335387	经血	-0.1986892
-3.9506652	测定	-0.1710047
-3.8647041	C	-0.17717882
-4.4968524	肽	-0.15006147
-3.8647041	尿	-0.16567343
-3.8647041	并发	-0.1710047
-4.335387	增殖性	-0.1986892
-4.4968524	视网膜	-0.15006147
-4.057948	变	-0.15006147
-3.9506652	植入	-0.15006147
-4.4968524	脚趾	-0.15006147
-4.057948	坏疽	-0.15006147
-4.4968524	四十二	-0.15006147
-4.057948	川崎	-0.21695937
-3.5111675	病	-0.16003314
-3.3657184	皮肤	-0.1872061
-4.4968524	粘膜	-0.15006147
-4.2007446	淋巴结	-0.15006152
-4.4968524	未明	-0.15006147
-4.2007446	血管炎	-0.18186767
-4.4968524	发热	-0.15006147
-4.4968524	肿大	-0.15006147
-4.2007446	造影	-0.15006147
-4.2007446	超声	-0.26806906
-4.4968524	心动图	-0.15006147
-4.4968524	最初	-0.15006147
-4.4968524	四十三	-0.15006147
-4.057948	幼年	-0.21695937
-4.2007446	类风湿	-0.18186767
-3.9506652	关节炎	-0.15850747
-4.4968524	斯蒂尔	-0.15006147
-3.297251	少儿	-0.4155954
-4.4968524	结缔组织	-0.15006147
-4.057948	特点	-0.15006147
-4.4968524	受累	-0.15006147
-4.057948	肝	-0.15006147
-4.057948	膝关节	-0.1736951
-4.2007446	髋关节	-0.15006152
-4.335387	四十四	-0.1986892
-4.335387	心肌炎	-0.15006147
-4.335387	局限性	-0.18186767
-3.7929785	炎症	-0.16340852
-4.057948	左室	-0.23897421
-3.9506652	腔	-0.16886437
-4.335387	扩大	-0.15006147
-4.057948	正常值	-0.1736951
-4.057948	上限	-0.16886437
-3.9506652	40%	-0.15006147
-4.335387	四十五	-0.15006147
-3.9506652	哮喘	-0.15006147
-4.4968524	过去	-0.15006147
-4.057948	两年	-0.1736951
-4.335387	才	-0.15006147
-4.057948	呼气	-0.1736951
-4.4968524	峰	-0.15006147
-4.335387	流量	-0.15006152
-4.4968524	激动剂	-0.15006147
-4.4968524	预计	-0.15006147
-3.9506652	值	-0.17458734
-3.7929785	间隔	-0.16340852
-4.335387	不少	-0.1986892
-4.4968524	时间段	-0.15006147
-4.335387	胸腔	-0.15006147
-4.4968524	过度	-0.15006147
-4.4968524	膨胀	-0.15006147
-4.4968524	在家	-0.15006147
-4.4968524	吸氧	-0.15006147
-4.335387	每天	-0.15006147
-4.335387	类固醇	-0.15006147
-4.335387	六个月	-0.15006147
-3.4779196	次	-0.16660954
-3.3188958	住院治疗	-0.27128574
-4.335387	建议	-0.15006147
-4.4968524	夜晚	-0.15006147
-4.4968524	四十六	-0.15006147
-4.2007446	手足	-0.26806906
-4.4968524	口病	-0.15006152
-4.4968524	肠道病毒	-0.15006147
-3.7929785	传染病	-0.16171758
-4.4968524	主要症状	-0.15006147
-4.4968524	为手	-0.15006147
-3.677543	足	-0.15006147
-4.4968524	口腔	-0.15006147
-4.4968524	斑	-0.15006147
-4.4968524	丘疹	-0.15006147
-4.4968524	疱疹	-0.15006147
-3.7929785	危重	-0.3630874
-4.4968524	脊髓炎	-0.15006147
-4.335387	肺水肿	-0.15006147
-4.335387	四十七	-0.1986892
-4.057948	骨	-0.15006147
-4.2007446	生长	-0.15006152
-4.4968524	全症	-0.15006152
-4.4968524	胶元病	-0.15006147
-4.4968524	易碎	-0.15006147
-4.4968524	骨质	-0.15006147
-4.4968524	疏松	-0.15006147
-4.4968524	易	-0.15006147
-4.335387	骨折	-0.15006147
-4.335387	该病	-0.15006152
-4.057948	类型	-0.15006147
-4.335387	Ⅰ	-0.15006147
-4.2007446	Ⅱ	-0.18186767
-4.4968524	Ⅳ	-0.15006147
-3.7929785	只	-0.22507079
-4.335387	成骨	-0.15006147
-4.4968524	发育	-0.15006147
-4.4968524	迟缓	-0.15006147
-3.9506652	多发性	-0.29614058
-4.335387	脊柱	-0.15006147
-4.4968524	后侧	-0.15006147
-4.4968524	凸及	-0.15006147
-3.5864363	身体检查	-0.33879915
-4.4968524	家族史	-0.15006147
-4.2007446	X	-0.26806906
-4.4968524	线	-0.15006152
-4.4968524	四十八	-0.15006147
-4.335387	婴儿	-0.15006152
-3.9506652	累及	-0.15006147
-3.7929785	脊髓	-0.16340852
-4.335387	前角	-0.1986892
-4.2007446	核	-0.1736951
-4.2007446	神经元	-0.15006152
-4.057948	性病	-0.15850747
-4.057948	脑干	-0.16567343
-4.335387	颅	-0.1986892
-4.4968524	伴随	-0.15006147
-4.4968524	症如	-0.15006147
-4.4968524	中间	-0.15006147
-4.4968524	少年	-0.15006147
-4.4968524	Kugelberg	-0.15006147
-4.4968524	Welander	-0.15006147
-4.2007446	之内	-0.18186767
-4.057948	B	-0.16886437
-4.335387	D	-0.15006147
-3.7929785	III	-0.4784659
-3.3416765	类	-0.26414374
-4.335387	风湿性关节炎	-0.16567343
-3.9506652	溶血性	-0.23897421
-4.4968524	链球菌	-0.15006152
-4.2007446	心肌病	-0.15006152
-3.677543	系统性	-0.21043359
-4.057948	红斑	-0.15006147
-4.2007446	狼疮	-0.15006152
-4.4968524	硬化	-0.15006152
-3.8647041	肌	-0.4115191
-4.2007446	营养不良	-0.15006152
-3.677543	脊髓灰质炎	-0.16886437
-4.335387	球	-0.1986892
-3.2569513	13	-0.28813484
-3.3188958	14	-0.24790397
-4.4968524	去	-0.15006147
-3.9506652	皮质	-0.19677149
-4.4968524	备注	-0.15006147
-4.4968524	标注	-0.15006147
-4.4968524	后方	-0.15006147
-3.7929785	极	-0.22707789
-4.335387	早期	-0.15006147
-4.4968524	局限于	-0.15006147
-4.4968524	上皮	-0.15006147
-4.4968524	穿破	-0.15006147
-4.4968524	基底膜	-0.15006147
-3.8647041	癌细胞	-0.29614058
-4.2007446	生物	-0.15006152
-4.4968524	经对	-0.15006147
-4.2007446	活	-0.18186767
-3.8647041	针对	-0.15006152
-4.2007446	病灶	-0.15006152
-4.4968524	艾滋病毒	-0.15006147
-3.677543	狭窄	-0.17590879
-4.335387	粥样	-0.15006147
-4.335387	斑块	-0.1986892
-3.9506652	切除术	-0.1868647
-4.335387	一支	-0.15006147
-4.335387	管腔	-0.15006147
-4.4968524	横截面	-0.15006147
-4.057948	左	-0.15006147
-4.2007446	主干	-0.23542787
-4.4968524	左前	-0.15006147
-4.4968524	降支	-0.15006147
-4.4968524	回旋	-0.15006147
-4.2007446	支	-0.15006152
-4.2007446	右	-0.15006152
-3.447037	较	-0.3323379
-4.335387	小	-0.15006147
-3.7314367	10%	-0.1736951
-3.9506652	外伤	-0.16171758
-3.9506652	所指	-0.20250605
-4.4968524	但须	-0.15006147
-4.2007446	全麻	-0.26806906
-3.8647041	颅骨	-0.29614058
-4.335387	切开	-0.15006147
-4.4968524	血肿	-0.15006147
-4.057948	清除	-0.15006147
-4.4968524	钻孔	-0.15006147
-3.8647041	肌力	-0.16567343
-3.9506652	动脉瘤	-0.16171758
-4.335387	及脑	-0.1986892
-4.335387	血管瘤	-0.15006152
-4.4968524	脑部	-0.15006147
-3.677543	肿瘤	-0.15006147
-4.4968524	微	-0.15006147
-4.4968524	腺瘤	-0.15006147
-3.8647041	增生	-0.17717882
-4.335387	血细胞	-0.15006152
-4.2007446	白细胞	-0.15006152
-4.4968524	质和量	-0.15006147
-4.335387	血象	-0.15006147
-4.2007446	但本	-0.18186767
-4.2007446	需由	-0.15006152
-4.4968524	我司	-0.15006147
-3.8647041	提交	-0.15006147
-4.057948	措施	-0.15006147
-4.4968524	仅以	-0.15006147
-4.057948	减轻	-0.15006147
-4.4968524	痛苦	-0.15006147
-4.4968524	临床医学	-0.15006147
-3.8647041	判断	-0.15006152
-4.335387	存活期	-0.15006147
-4.4968524	英文	-0.15006147
-4.4968524	缩写	-0.15006147
-3.7929785	人体	-0.16171758
-3.9506652	样本	-0.16584486
-3.629605	抗体	-0.2220139
-3.7314367	阳性	-0.1710047
-3.9506652	体征	-0.18851829
-4.4968524	生殖细胞	-0.15006147
-4.335387	受精卵	-0.1986892
-4.4968524	遗传物质	-0.15006147
-4.335387	基因	-0.15006147
-4.4968524	突变	-0.15006147
-4.335387	畸变	-0.1986892
-4.2007446	通常	-0.23542787
-4.4968524	亲代	-0.15006147
-4.4968524	传至	-0.15006147
-4.4968524	后代	-0.15006147
-4.335387	垂直	-0.15006147
-4.4968524	获得性免疫	-0.15006147
-4.4968524	廿四	-0.15006147
-4.335387	肩关节	-0.15006152
-4.335387	整个	-0.15006152
-4.4968524	四种	-0.15006147
-4.335387	口唇	-0.15006147
-4.057948	音	-0.1736951
-4.4968524	齿舌	-0.15006147
-4.4968524	口盖	-0.15006147
-4.4968524	喉头	-0.15006147
-4.2007446	三种	-0.15006152
-4.4968524	中枢	-0.15006147
-4.4968524	受伤害	-0.15006147
-4.4968524	失语症	-0.15006147
-4.057948	穿衣	-0.23542787
-4.4968524	脱衣	-0.15006147
-3.9506652	移动	-0.21695937
-4.4968524	房间	-0.15006147
-4.2007446	行动	-0.23542787
-4.4968524	上下床	-0.15006147
-4.335387	上下	-0.1986892
-4.4968524	轮椅	-0.15006147
-4.2007446	如厕	-0.26806906
-4.2007446	进食	-0.23542787
-4.4968524	准备	-0.15006147
-4.4968524	碗	-0.15006147
-4.335387	碟	-0.1986892
-4.4968524	中取	-0.15006147
-4.4968524	放入	-0.15006147
-4.4968524	口中	-0.15006147
-4.2007446	洗澡	-0.26806906
-4.4968524	淋浴	-0.15006147
-4.335387	盆浴	-0.1986892
-3.5864363	1.2	-0.2783984
-2.341953	您	-0.44697666
-2.381112	我们	-0.41751248
-2.603698	本主险	-1.3769794
-3.8647041	1.3	-0.25759524
-3.677543	7.1	-0.16250585
-3.7929785	1.4	-0.20689866
-3.7314367	每一	-0.37373054
-3.5471733	费率	-0.1991938
-3.9506652	后本	-0.33501583
-2.7618458	主险	-0.7736355
-3.7929785	延续	-0.2116604
-3.7314367	65	-0.42107934
-4.335387		-0.1986892
-3.4779196		-0.32345557
-3.7314367	2.1	-0.17976974
-3.7314367	3.2	-0.19037838
-3.629605	日内	-0.25458986
-4.4968524	难以确定	-0.15006147
-3.9506652	途径	-0.18982926
-4.335387	虽未	-0.15006147
-3.5471733	3.3	-0.18186767
-4.4968524	身份证件	-0.15006147
-4.057948	7.17	-0.18186767
-4.4968524	继承权	-0.15006147
-3.677543	补充	-0.47223186
-3.7314367	3.4	-0.1785802
-4.4968524	收齐	-0.15006147
-3.9506652	31	-0.16886437
-4.4968524	公示	-0.15006147
-4.335387	单利	-0.15006152
-3.9506652	中国人民银行	-0.21695937
-4.335387	同期	-0.15006152
-4.335387	金融机构	-0.18186767
-4.4968524	活期存款	-0.15006147
-4.4968524	基准利率	-0.15006147
-3.4779196	4.2	-0.21449412
-3.8647041	除本	-0.33501583
-4.057948	7.18	-0.1736951
-3.7314367	零时	-0.26414374
-4.4968524	仍会	-0.15006147
-4.335387	扣减	-0.15006147
-3.5864363	欠交	-0.5313105
-3.677543	结束	-0.17226872
-4.335387		-0.19140007
-3.3416765	5.1	-0.21377885
-3.276634	满期	-0.4302739
-3.629605	净	-0.5971706
-4.335387		-0.18697448
-4.335387	关注	-0.1986892
-3.677543	6.1	-0.20625213
-3.9506652	6.3	-0.18037024
-3.447037	按本	-0.5012772
-4.057948	6.4	-0.18381318
-3.3657184	当	-0.2568637
-3.5111675	险	-0.24790397
-4.057948	6.5	-0.20250605
-4.2007446	7.8	-0.17590879
-3.4779196	医疗事故	-0.2865804
-4.4968524	医务人员	-0.15006147
-3.9506652	违反	-0.17717882
-4.335387	医疗卫生	-0.15006147
-4.057948	行政	-0.15006147
-4.4968524	部门规章	-0.15006147
-4.4968524	诊疗	-0.15006147
-4.057948	常规	-0.1736951
-4.335387	过失	-0.15006147
-4.057948	人身	-0.21695937
-4.2007446	7.9	-0.17590879
-3.9506652	非处方药	-0.33233786
-3.9506652	指在	-0.15006147
-4.4968524	凭	-0.15006147
-4.335387	助理	-0.15006147
-4.4968524	消费者	-0.15006147
-4.2007446	7.10	-0.1736951
-4.4968524	貌似	-0.15006147
-4.335387	潜在	-0.15006147
-4.4968524	非暴力	-0.15006147
-4.2007446	突然	-0.18186767
-4.4968524	司法机关	-0.15006147
-4.057948	诊断书	-0.1986892
-4.2007446	7.11	-0.16340852
-4.057948	7.15	-0.16886437
-4.057948	7.16	-0.17590879
-3.629605	包含	-0.15408038
-4.4968524	营业费用	-0.15006147
-4.4968524	佣金	-0.15006147
-4.2007446	其他费用	-0.18186767
-4.335387	计算公式	-0.18186767
-2.5629156	"	-0.32648733
-4.335387	35%	-0.15006147
-3.9506652	指由	-0.15006152
-4.057948	主管部门	-0.18851829
-4.4968524	个人身份	-0.15006147
-3.8647041	证件	-0.1736951
-4.2007446	居民身份证	-0.18186767
-4.335387	按规定	-0.15006147
-4.2007446	护照	-0.23542787
-4.4968524	军官证	-0.15006147
-4.4968524	警官证	-0.15006147
-4.4968524	士兵证	-0.15006147
-3.0976574	平安	-0.35763133
-4.335387	股份	-0.1986892
-4.057948		-0.23897421
-3.5864363	1.1	-0.18982926
-4.057948	都	-0.15006147
-3.677543	之间	-0.39306614
-4.335387	护身	-0.1986892
-4.2007446	福	-0.17717882
-3.9506652	10.1	-0.16171758
-3.9506652	10.2	-0.16886437
-3.9506652	10.3	-0.1604069
-3.7929785	在此期间	-0.18851829
-4.4968524	认真	-0.15006147
-4.4968524	审视	-0.15006152
-3.9506652	认为	-0.1593612
-4.057948	相符	-0.23542787
-4.057948	10.4	-0.18186772
-3.629605	2.2	-0.21959634
-3.447037	2.3	-0.23150761
-3.7314367	年内	-0.2708283
-4.057948	10.5	-0.18851832
-3.9506652	10.6	-0.15850747
-4.2007446	10.7	-0.1710047
-4.2007446	10.8	-0.18186772
-4.2007446	10.9	-0.17717882
-3.4779196	项	-0.22089197
-4.057948	监护人	-0.16567343
-3.677543	3.5	-0.18601237
-3.677543	失踪	-0.32080486
-4.335387	判决	-0.15006147
-4.335387	确知	-0.1986892
-3.7314367	3.6	-0.17717882
-3.9506652	3.7	-0.1785802
-3.7929785	选择权	-0.18492489
-4.335387	签订	-0.15006152
-3.2569513	转换	-0.24168922
-4.335387		-0.1986892
-3.3911695	4.1	-0.21043253
-4.2007446	抵交	-0.18186767
-4.4968524	抵交下	-0.15006147
-3.3911695	应付	-0.3930416
-4.4968524	抵交后	-0.15006147
-4.335387	不计	-0.15006147
-3.3416765	交费	-0.27557924
-4.2007446	10.10	-0.16340852
-3.677543	等额	-0.5313105
-4.4968524	按原	-0.15006147
-4.4968524	中本	-0.15006147
-4.2007446	派发	-0.15006147
-4.057948	日至	-0.16886437
-3.4182055	5.2	-0.22187519
-3.7929785	咨询	-0.2116604
-4.335387	数值	-0.15006147
-3.5111675	之外	-0.4784659
-3.9506652	只能	-0.15006147
-4.4968524	所以	-0.15006147
-4.057948	6.2	-0.19619988
-3.9506652	垫交	-0.20346555
-4.335387	所垫交	-0.1986892
-4.335387	视同	-0.15006147
-4.057948	中所称	-0.39300779
-3.7929785	再	-0.18594874
-3.9506652	执行	-0.16886437
-4.335387		-0.18487808
-3.7314367	停止	-0.1604069
-3.9506652	7.2	-0.20080552
-4.335387	达成协议	-0.15006147
-3.5111675	补交	-0.23959318
-4.2007446	足额	-0.15006152
-4.335387	本息	-0.15006147
-4.4968524	所欠	-0.15006147
-4.335387	当未	-0.1986892
-4.335387		-0.18186767
-3.7929785	9.1	-0.18597865
-3.7929785	9.2	-0.25116897
-4.4968524	前条	-0.15006147
-3.9506652	9.3	-0.21672131
-4.4968524	书上	-0.15006147
-4.335387	实付	-0.1986892
-3.8647041	退还给	-0.34777188
-4.335387	不符	-0.15006147
-3.125181	调整	-0.30473262
-4.057948	9.4	-0.17717882
-3.677543	返还	-0.19224639
-4.4968524	还清	-0.15006147
-4.2007446	9.7	-0.1785802
-4.4968524		-0.15006152
-4.4968524	指从	-0.15006147
-4.4968524	起至	-0.15006147
-3.7929785	止	-0.16171758
-4.4968524	表面	-0.15006147
-3.7929785	时本	-0.44416028
-3.5471733	这部分	-0.7125491
-4.4968524	讲	-0.15006147
-4.4968524	很	-0.15006147
-4.335387	慎重	-0.15006147
-3.629605	关于	-0.1644524
-4.4968524	二维码	-0.15006147
-4.4968524	查看	-0.15006147
-3.629605	4.3	-0.17497534
-3.7929785	4.4	-0.18970259
-3.7929785	手续	-0.19719693
-4.2007446	原有	-0.15006152
-4.4968524	体现	-0.15006147
-4.4968524	那	-0.15006147
-4.4968524	垫交当	-0.15006147
-4.4968524	可用	-0.15006147
-3.8647041	不会	-0.15006147
-4.4968524	完时	-0.15006147
-3.9506652	7.3	-0.18837123
-3.5471733	50	-0.29614058
-3.9506652	7.4	-0.18205494
-3.9506652	7.5	-0.17900756
-4.4968524	但会	-0.15006152
-4.4968524	项目表	-0.15006147
-3.5864363	颅脑	-0.5313105
-3.5864363	智力	-0.24822214
-3.9506652	缺损	-0.16567343
-4.057948	智商	-0.1736951
-4.4968524	自理	-0.15006147
-4.4968524	处于	-0.15006147
-4.057948	34	-0.1736951
-4.335387	有人	-0.15006147
-4.4968524	才能	-0.15006147
-4.2007446	经常	-0.15006152
-4.335387	大部分	-0.1986892
-3.8647041	植物	-0.28977996
-3.677543	双侧	-0.23170622
-3.7929785	一侧	-0.1710047
-4.335387	另一侧	-0.15006152
-3.9506652	盲目	-0.18186772
-4.2007446	直径	-0.26806906
-4.2007446	°	-0.15006147
-4.4968524	91dB	-0.15006147
-4.2007446	耳廓	-0.26806906
-4.335387	一耳	-0.1986892
-4.4968524	71dB	-0.15006147
-4.4968524	舌	-0.15006147
-4.4968524	全舌	-0.15006147
-4.2007446	胸部	-0.18186767
-4.4968524	心肺	-0.15006147
-4.4968524	贯通	-0.15006147
-4.335387	修补术	-0.15006147
-3.8647041	小肠	-0.15006147
-3.9506652	75%	-0.15006147
-3.7314367	合并	-0.18594874
-4.4968524	短肠	-0.15006147
-4.4968524	胰	-0.15006147
-3.4779196	肾	-0.23529926
-4.4968524	孤肾	-0.15006147
-4.2007446	会阴部	-0.26806906
-4.057948	睾丸	-0.1986892
-4.2007446	上颌骨	-0.1736951
-4.057948	下颌骨	-0.33233786
-4.4968524	对侧	-0.15006147
-4.4968524	同侧	-0.15006147
-4.4968524	脱落	-0.15006147
-4.4968524	枚	-0.15006147
-4.2007446	三肢	-0.26806906
-4.335387	二肢	-0.15006152
-4.2007446	肢	-0.15006152
-4.4968524	另二肢	-0.15006147
-4.335387	肘关节	-0.15006147
-4.4968524	瘫	-0.15006147
-4.335387	截瘫	-0.15006147
-4.4968524	大便	-0.15006147
-4.4968524	小便	-0.15006147
-4.4968524	失禁	-0.15006147
-4.335387	偏瘫	-0.15006147
-4.335387	头颈部	-0.15006147
-4.4968524	8%	-0.15006147
-4.2007446	面部皮肤	-0.18186767
-3.447037	瘢痕	-0.2818349
-3.9506652	颈部	-0.16886437
-4.4968524	活动度	-0.15006147
-4.4968524	应用	-0.15006147
-3.7929785	来	-0.15006147
-4.335387		-0.19140007
-3.629605	3.1	-0.17640227
-3.8647041	假日	-0.27201617
-4.057948	7.20	-0.17717882
-4.4968524	比例表	-0.15006147
-4.2007446	三度	-0.15006152
-3.4779196	烧烫伤	-0.28038704
-3.9506652	合同条款	-0.1604069
-4.4968524	五一劳动节	-0.15006147
-4.335387	国庆节	-0.15006147
-3.9506652	27	-0.16567343
-4.335387	春节	-0.15006147
-3.447037	22	-0.27118558
-4.057948	政府部门	-0.15006147
-4.2007446	许可	-0.18186767
-3.677543	民航	-0.74519026
-4.4968524	班机	-0.15006147
-3.7929785	轮船	-0.18823756
-3.9506652	列车	-0.18186772
-4.335387	地铁	-0.1986892
-4.4968524	轻轨	-0.15006147
-4.2007446	公共汽车	-0.26806906
-4.335387	电车	-0.1986892
-4.335387	出租车	-0.15006147
-4.4968524	包车	-0.15006147
-4.4968524	飞抵	-0.15006147
-3.8647041	目的地	-0.1604069
-4.335387	车票	-0.15006147
-4.335387	上车时	-0.1986892
-3.447037	到达	-0.17437728
-3.8647041	旅程	-0.16567343
-4.4968524	终点	-0.15006147
-4.335387	下车时	-0.1986892
-4.4968524	检票	-0.15006147
-4.335387	踏上	-0.15006147
-4.4968524	船票	-0.15006147
-3.677543	离开	-0.18823756
-3.5471733	个人	-0.25187168
-4.4968524	营业	-0.15006147
-3.5111675	境内	-0.18205494
-4.2007446	营业性	-0.18186767
-4.057948	运输	-0.1736951
-4.335387	所有人	-0.15006147
-4.4968524	牟利	-0.15006147
-4.2007446	旅客	-0.15006147
-4.4968524	货物运输	-0.15006147
-4.057948	7.6	-0.18946467
-4.335387	由主	-0.1986892
-4.335387	日同	-0.1986892
-4.335387	随主险	-0.1986892
-4.335387	一同	-0.1986892
-4.2007446	9.16	-0.16886437
-2.9241014	保险人	-0.23880883
-4.335387	所选	-0.15006147
-3.9506652	随着	-0.15006147
-4.4968524	上升	-0.15006147
-4.4968524	检视	-0.15006147
-4.4968524	整体	-0.15006147
-4.4968524	通胀	-0.15006147
-4.4968524	一系列	-0.15006147
-4.057948	因素	-0.15006147
-4.335387	所用	-0.1986892
-4.4968524	偏差	-0.15006147
-4.4968524	幅度	-0.15006147
-4.2007446	一类	-0.15006152
-4.335387	人群	-0.15006147
-4.2007446	后续	-0.15006152
-3.8647041	续期	-0.56909907
-3.9506652	对本	-0.39300779
-4.335387	协商一致	-0.15006147
-4.2007446	网站	-0.15006152
-4.4968524	互联网	-0.15006147
-4.057948	渠道	-0.16886437
-4.4968524	在线提交	-0.15006147
-4.4968524	电子信息	-0.15006147
-4.4968524	法律效力	-0.15006147
-4.335387	电子邮箱	-0.18186767
-4.4968524	86	-0.15006147
-4.057948	6.6	-0.17717882
-4.4968524	管辖权	-0.15006147
-4.4968524	提出诉讼	-0.15006147
-3.2569513	癌症	-0.2799811
-3.4779196	之日	-0.23439135
-4.335387	取材	-0.15006147
-3.7929785	未经	-0.1710047
-4.2007446	行	-0.15006147
-4.335387	放射性	-0.15006147
-3.5864363	疗法	-0.287096
-3.8647041	化学	-0.16340852
-4.4968524	药物性	-0.15006147
-4.2007446	放疗	-0.15006147
-4.057948	化疗	-0.20506938
-4.057948	入	-0.16886437
-3.4779196	门诊	-0.22786386
-3.9506652	挂床	-0.48991778
-4.335387	不合理	-0.1986892
-4.4968524	床	-0.15006147
-4.4968524	在院	-0.15006147
-4.4968524	具体表现	-0.15006147
-3.629605	连续	-0.35167348
-4.335387	若干	-0.15006147
-4.335387	护理费	-0.1986892
-4.335387	诊疗费	-0.15006147
-3.8647041	床位费	-0.16340852
-3.8647041	病人	-0.15006147
-4.057948	适当	-0.1736951
-4.4968524	持续时间	-0.15006147
-4.4968524	强度	-0.15006147
-4.2007446	级别	-0.15006152
-3.9506652	广泛	-0.15006147
-4.4968524	舒适	-0.15006147
-4.4968524	而设	-0.15006147
-4.4968524	学术	-0.15006147
-3.9506652	教育	-0.33233786
-4.4968524	专业培训	-0.15006147
-4.335387	一部分	-0.15006152
-4.4968524	试验性	-0.15006147
-4.4968524	研究性	-0.15006147
-4.2007446	7.12	-0.1736951
-4.2007446	所称	-0.23542787
-4.335387	城镇职工	-0.1986892
-4.2007446	救助	-0.15006152
-4.2007446	7.13	-0.17717882
-4.335387	利用	-0.15006152
-4.4968524	增殖	-0.15006147
-4.4968524	杀灭	-0.15006147
-4.057948	7.14	-0.18186772
-4.057948	内分泌	-0.1736951
-4.057948	抑制	-0.15006147
-4.335387	激素	-0.15006147
-4.335387	生成	-0.15006147
-4.4968524	杀死	-0.15006147
-4.335387	放射疗法	-0.15006152
-4.4968524	放射线	-0.15006147
-4.4968524	照射	-0.15006147
-4.2007446	患病	-0.15006152
-4.335387	攻击	-0.1986892
-4.4968524	现代	-0.15006147
-4.4968524	技术手段	-0.15006147
-4.4968524	激发	-0.15006147
-4.4968524	免疫系统	-0.15006147
-4.2007446	对抗	-0.15006152
-4.4968524	新型	-0.15006147
-4.057948	靶向	-0.1986892
-4.4968524	核发	-0.15006147
-4.4968524	批准文号	-0.15006147
-4.4968524	进口	-0.15006147
-4.335387	注册	-0.1986892
-3.5864363	医药	-0.48607457
-3.629605	抗	-0.16886437
-4.2007446	呕吐	-0.15006152
-4.4968524	中因	-0.15006147
-4.2007446	7.19	-0.15006152
-4.335387	排斥	-0.1986892
-3.677543	器官移植	-0.19100016
-4.335387	骨髓移植	-0.15006147
-4.4968524	抑制剂	-0.15006147
-4.335387	此类	-0.15006147
-4.057948	称为	-0.16567343
-4.2007446	7.21	-0.15006147
-4.335387	分子	-0.15006147
-4.4968524	致癌	-0.15006147
-4.4968524	位点	-0.15006147
-4.4968524	特异性	-0.15006147
-4.4968524	载体	-0.15006147
-4.4968524	杀伤	-0.15006147
-4.335387	活性	-0.15006147
-4.335387	物质	-0.15006147
-4.4968524	选择性	-0.15006147
-3.8647041	运送	-0.15006152
-4.057948	7.23	-0.17717882
-4.057948	7.24	-0.17717882
-4.2007446	7.25	-0.18186767
-3.2200756	=	-0.20694555
-4.2007446	日数	-0.15006147
-4.4968524	抗癌	-0.15006147
-4.4968524	卫士	-0.15006147
-4.4968524	表一	-0.15006147
-3.5864363	万元	-0.3274787
-4.4968524	男女	-0.15006147
-4.4968524	027.930	-0.15006147
-4.4968524	22930.254	-0.15006147
-4.4968524	358605.0423	-0.15006147
-4.4968524	1124.625	-0.15006147
-4.4968524	53033.160	-0.15006147
-4.4968524	859651.4443	-0.15006147
-4.4968524	1221.821	-0.15006147
-4.4968524	73136.267	-0.15006147
-4.4968524	760699.1465	-0.15006147
-4.4968524	7319.218	-0.15006147
-4.4968524	73239.775	-0.15006147
-4.4968524	061747.5491	-0.15006147
-4.4968524	3417.016	-0.15006147
-4.4968524	23343.482	-0.15006147
-4.4968524	862796.8520	-0.15006147
-4.4968524	1515.214	-0.15006147
-4.4968524	33447.691	-0.15006147
-4.4968524	063847.3552	-0.15006147
-4.4968524	3613.712	-0.15006147
-4.4968524	83552.599	-0.15006147
-4.4968524	964900.0588	-0.15006147
-4.4968524	0712.611	-0.15006147
-4.4968524	83658.0109	-0.15006147
-4.4968524	765956.3627	-0.15006147
-4.4968524	2811.811	-0.15006147
-4.4968524	23764.5120	-0.15006147
-4.4968524	5661128.0730	-0.15006147
-4.4968524	8911.410	-0.15006147
-4.4968524	93871.9132	-0.15006147
-4.4968524	5671214.1778	-0.15006147
-4.4968524	91011.311	-0.15006147
-4.4968524	03980.3145	-0.15006147
-4.4968524	5681297.7830	-0.15006147
-4.4968524	11111.411	-0.15006147
-4.4968524	34090.2159	-0.15006147
-4.4968524	5691389.1883	-0.15006147
-4.4968524	51211.711	-0.15006147
-4.4968524	741101.9174	-0.15006147
-4.4968524	3701499.5934	-0.15006147
-4.4968524	01312.112	-0.15006147
-4.4968524	242115.5189	-0.15006147
-4.4968524	7711602.3989	-0.15006147
-4.4968524	51412.612	-0.15006147
-4.4968524	843131.2205	-0.15006147
-4.4968524	4721710.71047	-0.15006147
-4.4968524	31513.113	-0.15006147
-4.4968524	544149.1221	-0.15006147
-4.4968524	3731806.91096	-0.15006147
-4.4968524	61613.614	-0.15006147
-4.4968524	445169.1236	-0.15006147
-4.4968524	2741904.51146	-0.15006147
-4.4968524	41714.115	-0.15006147
-4.4968524	446191.3250	-0.15006147
-4.4968524	3752002.71196	-0.15006147
-4.4968524	51814.616	-0.15006147
-4.4968524	647215.7263	-0.15006147
-4.4968524	9762101.01246	-0.15006147
-4.4968524	71915.218	-0.15006147
-4.4968524	148242.2277	-0.15006147
-4.4968524	2772198.91296	-0.15006147
-4.4968524	72015.819	-0.15006147
-4.4968524	949270.6290	-0.15006147
-4.4968524	3782279.71332	-0.15006147
-4.4968524	12116.521	-0.15006147
-4.4968524	950300.8303	-0.15006147
-4.4968524	5792358.11367	-0.15006147
-4.4968524	02217.324	-0.15006147
-4.4968524	351332.7316	-0.15006147
-4.4968524	9802440.51405	-0.15006147
-4.4968524	92318.427	-0.15006147
-4.4968524	152366.1330	-0.15006147
-4.4968524	5812521.11445	-0.15006147
-4.4968524	12419.730	-0.15006147
-4.4968524	353401.1344	-0.15006147
-4.4968524	4822600.11485	-0.15006147
-4.4968524	22521.234	-0.15006147
-4.4968524	054437.9358	-0.15006147
-4.4968524	6832665.91522	-0.15006147
-4.4968524	22623.038	-0.15006147
-4.4968524	255476.5373	-0.15006147
-4.4968524	3842731.01560	-0.15006147
-4.4968524	82725.243	-0.15006147
-4.4968524	056517.2388	-0.15006147
-4.4968524	8852796.51601	-0.15006147
-4.4968524	52827.648	-0.15006147
-4.4968524	457560.1405	-0.15006147
-4.2007446	56	-0.15006152
-4.335387	85	-0.1986892
-3.9506652	监管	-0.16886437
-4.335387	折扣	-0.15006147
-4.335387	因子	-0.15006147
-3.677543	万	-0.15006147
-4.4968524	万及	-0.15006147
-4.057948	系数	-0.15006147
-4.335387	95%	-0.15006147
-4.4968524	85%	-0.15006147
-4.335387	65%	-0.15006147
-4.2007446	e	-0.1736951
-4.4968524	生保	-0.15006147
-4.057948	2017	-0.18851829
-4.2007446	版	-0.26806906
-4.335387	99	-0.1986892
-4.335387	日且	-0.15006147
-4.335387	1.5	-0.1986892
-3.7929785	免	-0.6360458
-4.2007446	赔额	-0.17183074
-4.4968524	排异	-0.15006147
-4.057948	治疗费	-0.16340852
-4.335387	手术费	-0.15006152
-4.2007446	到期日	-0.15006147
-4.057948	至本	-0.31815547
-3.5471733	罹患	-0.22283317
-4.335387	计算方法	-0.15006152
-3.9506652	因为	-0.16340852
-3.447037	费	-0.6030094
-4.4968524	金在	-0.15006147
-3.4182055	初次	-0.43314573
-3.7929785	公式	-0.18982926
-3.5471733	就诊	-0.21682794
-4.057948	年免	-0.39300779
-4.4968524	下次	-0.15006147
-3.629605	同	-0.39306614
-4.4968524	未成年	-0.15006147
-4.2007446	子女	-0.15006152
-3.4182055	前述	-0.15585044
-4.335387	每满	-0.1736951
-4.4968524	12%	-0.15006147
-3.677543	2.4	-0.20931746
-3.1545675	提前	-0.9070799
-4.057948	证明书	-0.15006147
-4.335387	成	-0.15006152
-4.335387		-0.19140007
-3.7929785	8.1	-0.16171758
-4.2007446	10.11	-0.1736951
-4.2007446	9.5	-0.17933664
-4.057948	9.6	-0.16567343
-4.057948	日指	-0.15006147
-4.4968524	每季	-0.15006147
-4.4968524	每半年	-0.15006147
-4.4968524	尊严	-0.15006147
-4.4968524	于主险	-0.15006147
-4.057948	当主险	-0.39300779
-4.4968524	评审	-0.15006147
-4.335387	公立医院	-0.1986892
-4.335387	精神病院	-0.15006152
-4.4968524	专供	-0.15006147
-4.4968524	非以	-0.15006147
-4.057948	诊治	-0.16886437
-4.2007446	国家有关	-0.18186767
-4.335387	全天	-0.15006147
-4.057948	护士	-0.16886437
-4.335387	驻院	-0.15006147
-3.8647041	8.3	-0.17800261
-3.5111675	设立	-0.35689774
-4.4968524	记录本	-0.15006147
-3.276634	初始	-1.1333705
-4.4968524	成本	-0.15006147
-4.4968524	年度报告	-0.15006147
-3.677543	分为	-0.15850747
-3.3188958	期交	-1.0919778
-3.1700416	追加	-1.2381058
-4.4968524	日向	-0.15006147
-4.4968524	已付	-0.15006152
-4.335387	4000	-0.15006147
-4.4968524	整数倍	-0.15006147
-3.7929785	缓交	-0.18186772
-4.4968524	暂缓	-0.15006147
-4.4968524	未予	-0.15006147
-4.2007446	依次	-0.15006147
-4.335387	期期	-0.15006147
-3.4779196	交	-0.48495066
-4.4968524	其后	-0.15006147
-4.335387	交满前	-0.16886437
-4.4968524	1.5%	-0.15006147
-3.7314367	2.5	-0.16102318
-3.8647041	日利率	-0.25476345
-4.4968524	加总	-0.15006147
-4.4968524	得出	-0.15006147
-4.2007446	上个月	-0.26806906
-3.9506652	8.4	-0.1842312
-3.9506652	合同规定	-0.27201617
-4.057948	8.5	-0.17531738
-4.335387	自第	-0.15006152
-3.9506652	高于	-0.15006152
-3.677543	2.6	-0.19331357
-4.4968524	占期	-0.15006147
-3.8647041	下表	-0.20346555
-3.629605	每期	-0.40401965
-4.4968524	~	-0.15006147
-4.2007446	2500	-0.26806906
-4.2007446	年交	-0.26806906
-4.335387	1250	-0.1986892
-4.057948	半年	-0.23542787
-4.335387	625	-0.1986892
-4.2007446	季交	-0.15006152
-4.335387	208	-0.1986892
-3.7929785	25%	-0.16171758
-4.2007446	15%	-0.15006152
-3.7929785	超出	-0.17437728
-3.7314367	占	-0.15006147
-4.2007446	8.8	-0.1710047
-4.2007446	8.9	-0.16567343
-4.2007446	8.10	-0.1736951
-4.2007446	8.11	-0.1736951
-4.335387	8.12	-0.15006152
-4.2007446	从下	-0.26806906
-3.5864363	4.5	-0.1785802
-3.4779196	4.6	-0.20496278
-3.5864363	5.3	-0.17254007
-3.8647041	一并	-0.27201617
-4.4968524		-0.15006147
-4.4968524	各月	-0.15006147
-4.335387	多收	-0.1986892
-4.4968524	随身	-0.15006147
-4.335387	距	-0.15006147
-4.2007446	7.7	-0.17933664
-3.7929785	8.2	-0.1785802
-4.4968524	工作日内	-0.15006147
-4.335387	年利率	-0.18186767
-4.335387	1.75%	-0.15006147
-4.4968524	0.004795%	-0.15006147
-4.4968524	指出	-0.15006147
-4.4968524	生满	-0.15006147
-4.335387	起至本	-0.1986892
-4.335387	8.19	-0.15006152
-3.8647041	发生率	-0.20874427
-4.335387	若主险	-0.1986892
-4.335387	至主险	-0.1986892
-4.057948	一起	-0.15006147
-4.4968524	千元	-0.15006152
-4.2007446	将会	-0.15006147
-4.2007446	365	-0.1736951
-3.5864363	两全	-0.46051103
-4.4968524	后会	-0.15006147
-3.4182055	养老保险金	-0.23668623
-3.9506652	两者	-0.3630874
-4.335387	105%	-0.15006147
-4.057948	备案	-0.18851829
-4.4968524	中有	-0.15006147
-4.335387	不用	-0.15006147
-4.4968524	需经	-0.15006147
-4.2007446	次数	-0.15006147
-4.4968524	表上	-0.15006147
-4.335387	起讫	-0.15006147
-4.4968524	配有	-0.15006147
-4.335387	台	-0.15006147
-4.4968524	心电监护	-0.15006147
-4.4968524	仪	-0.15006147
-4.335387	抢救	-0.15006147
-4.4968524	设施	-0.15006147
-4.057948	相对	-0.23542787
-4.4968524	封闭	-0.15006147
-4.4968524	单人	-0.15006147
-4.4968524	加强	-0.15006147
-4.4968524	ICU	-0.15006147
-4.4968524	CCU	-0.15006147
-4.4968524	RCU	-0.15006147
-4.4968524	NICU	-0.15006147
-4.4968524	RICU	-0.15006147
-4.335387	中医	-0.1986892
-4.4968524	中成药	-0.15006147
-4.2007446	中草药	-0.15006147
-3.8647041	不论	-0.2116604
-3.8647041	多次	-0.15006152
-4.4968524	出于	-0.15006147
-4.4968524	五倍	-0.15006147
-4.4968524	内及	-0.15006147
-4.335387	商业保险	-0.15006147
-4.4968524	其所获	-0.15006147
-3.7929785	支出	-0.27309892
-4.2007446	明	-0.15006152
-4.4968524	前所患	-0.15006147
-4.4968524	知晓	-0.15006147
-3.9506652	做出	-0.16567343
-4.335387	职业病	-0.1986892
-4.057948	7.22	-0.16886437
-4.4968524	BRCA1	-0.15006147
-4.4968524	BRCA2	-0.15006147
-4.4968524	基因突变	-0.15006147
-4.4968524	家族	-0.15006147
-4.2007446	乳腺癌	-0.1736951
-4.4968524	息肉	-0.15006147
-4.4968524	病性	-0.15006147
-4.4968524	结	-0.15006147
-4.4968524	直肠癌	-0.15006147
-4.4968524	母细胞	-0.15006147
-4.4968524	Wilms	-0.15006147
-4.4968524	李	-0.15006147
-4.4968524	佛美尼	-0.15006147
-4.4968524	Li	-0.15006147
-4.4968524	Fraumeni	-0.15006147
-4.335387	接种	-0.15006147
-4.335387	预防	-0.15006147
-4.335387	疫苗	-0.15006147
-4.4968524	实验性	-0.15006147
-4.335387	滋补	-0.1986892
-4.4968524	即以	-0.15006147
-4.4968524	免疫力	-0.15006147
-4.4968524	主要用途	-0.15006147
-4.4968524	单味	-0.15006147
-4.4968524	成药	-0.15006147
-4.4968524	限于	-0.15006147
-4.4968524	人参	-0.15006147
-4.4968524	阿胶	-0.15006147
-4.4968524	鹿角胶	-0.15006147
-4.4968524	龟鹿	-0.15006147
-4.4968524	二仙	-0.15006147
-4.2007446	胶	-0.26806906
-4.4968524	龟板	-0.15006147
-4.4968524	鳖甲	-0.15006147
-4.4968524	马宝	-0.15006147
-4.4968524	珊瑚	-0.15006147
-4.4968524	玳瑁	-0.15006147
-4.4968524	冬虫夏草	-0.15006147
-4.4968524	藏红花	-0.15006147
-4.4968524	羚羊	-0.15006147
-4.4968524	犀角	-0.15006147
-4.4968524	牛黄	-0.15006147
-4.4968524	麝香	-0.15006147
-4.4968524	鹿茸	-0.15006147
-4.4968524	铁皮	-0.15006147
-4.4968524	枫斗	-0.15006147
-3.677543	材料	-0.23363906
-4.4968524	显微镜	-0.15006147
-4.335387	疾病诊断	-0.1986892
-4.335387	原始凭证	-0.16886437
-4.057948	清单	-0.16567343
-3.7314367	施行	-0.33000812
-4.335387	明细	-0.15006152
-4.4968524	社保	-0.15006147
-4.057948	报销	-0.1736951
-4.335387	自付	-0.15006147
-4.4968524	只要	-0.15006147
-4.4968524	某次	-0.15006147
-4.057948	>	-0.15006147
-3.3911695	本次	-0.29598126
-4.057948	家庭成员	-0.1736951
-4.335387	参保	-0.15006147
-4.335387	人数	-0.15006147
-4.4968524	人及	-0.15006147
-4.4968524	仅指	-0.15006147
-4.335387	父母	-0.1986892
-4.4968524	合法婚姻	-0.15006147
-3.7929785	关系	-0.30591595
-4.057948	配偶	-0.18186767
-4.335387	与其	-0.15006147
-3.677543	既往	-0.29610947
-3.7929785	疗养	-0.24295442
-4.057948	矫正	-0.21667014
-4.335387	预防性	-0.15006147
-4.057948	牙科	-0.23542787
-4.2007446	保健	-0.15006152
-3.7929785	意外事故	-0.1710047
-4.4968524	色素	-0.15006147
-4.4968524	沉着	-0.15006147
-4.335387	痤疮	-0.1986892
-4.4968524	雀斑	-0.15006147
-4.4968524	老年斑	-0.15006147
-4.4968524	痣	-0.15006147
-4.335387	去除	-0.15006147
-4.4968524	浅表	-0.15006147
-4.4968524	蜘蛛	-0.15006147
-4.2007446	脉	-0.15006147
-4.4968524	疙瘩	-0.15006147
-4.4968524	纹身	-0.15006147
-4.4968524	变色	-0.15006147
-4.4968524	除皱	-0.15006147
-4.4968524	除眼袋	-0.15006147
-4.2007446	开	-0.15006152
-4.4968524	双眼皮	-0.15006147
-4.4968524	斑秃	-0.15006147
-4.4968524	白发	-0.15006147
-4.4968524	秃发	-0.15006147
-4.4968524	脱发	-0.15006147
-4.4968524	植毛	-0.15006147
-4.4968524	脱毛	-0.15006147
-4.4968524	隆鼻	-0.15006147
-4.4968524	隆胸	-0.15006147
-3.8647041	矫形	-0.1710047
-4.4968524	生理	-0.15006147
-4.4968524	平足	-0.15006147
-4.4968524	功能性	-0.15006147
-4.057948	整容	-0.23542787
-4.4968524	健美	-0.15006147
-4.057948	营养	-0.1736951
-4.4968524	减肥	-0.15006147
-4.4968524	增胖	-0.15006147
-4.057948	人工	-0.16567343
-4.4968524	受精	-0.15006147
-4.057948	怀孕	-0.22283313
-4.4968524	难产	-0.15006147
-4.4968524	堕胎	-0.15006147
-4.335387	产	-0.1986892
-4.4968524	产后检查	-0.15006147
-4.335387	包皮	-0.15006152
-4.4968524	环切术	-0.15006147
-4.4968524	剥离	-0.15006147
-4.4968524	气囊	-0.15006147
-4.4968524	性功能	-0.15006147
-4.4968524	晶体	-0.15006147
-4.4968524	人工关节	-0.15006147
-4.4968524	材料费	-0.15006147
-4.4968524	安装	-0.15006152
-4.4968524	假体	-0.15006147
-4.4968524	义肢	-0.15006147
-4.4968524	自用	-0.15006147
-4.335387	按摩	-0.15006147
-4.4968524	用品	-0.15006147
-4.4968524	医疗器械	-0.15006147
-4.335387	耐用	-0.1986892
-4.4968524	支具	-0.15006147
-4.4968524	药房	-0.15006147
-4.4968524	泡制	-0.15006147
-4.2007446	酒	-0.15006152
-4.4968524	制剂	-0.15006147
-4.4968524	预测	-0.15006147
-4.335387	睡眠	-0.15006147
-4.4968524	心理咨询	-0.15006147
-3.7929785	心理	-0.21667014
-4.4968524	职场	-0.15006147
-4.4968524	婚恋	-0.15006147
-4.4968524	情绪	-0.15006147
-4.335387	殴斗	-0.1986892
-4.2007446	7.26	-0.1736951
-4.4968524	蹦极	-0.15006147
-4.4968524	滑翔机	-0.15006147
-4.2007446	滑翔伞	-0.26806906
-4.2007446	7.27	-0.18186767
-4.335387	7.28	-0.15006147
-4.335387	7.29	-0.15006147
-4.335387	7.30	-0.15006147
-4.335387	7.31	-0.15006147
-4.2007446	7.32	-0.18186767
-4.2007446	7.33	-0.18186767
-4.4968524	7.34	-0.15006147
-4.4968524	7.35	-0.15006147
-3.677543	交通	-0.5876104
-3.9506652	污染	-0.20250605
-4.4968524	恐怖袭击	-0.15006147
-4.335387	住院病人	-0.15006147
-4.335387	拒	-0.15006147
-4.4968524	一切	-0.15006152
-3.9506652	23	-0.18186767
-4.2007446	所在地	-0.15006147
-4.4968524	权威部门	-0.15006147
-3.9506652	批准	-0.16886437
-4.335387	精神病	-0.15006147
-4.4968524	孕妇	-0.15006147
-4.4968524	胎儿	-0.15006147
-4.4968524	验伤	-0.15006147
-4.4968524	亲子鉴定	-0.15006147
-4.4968524	遗传基因	-0.15006147
-4.2007446	若因	-0.16886437
-4.4968524	好转	-0.15006147
-4.335387	遵循	-0.15006147
-4.4968524	7.36	-0.15006147
-4.4968524	预留	-0.15006147
-3.7314367	100	-0.34777188
-4.057948	二十四时	-0.15006147
-4.335387	同一个	-0.15006147
-4.335387	世纪	-0.18186767
-4.4968524	星光	-0.15006147
-4.4968524	外币	-0.15006147
-4.4968524	创业	-0.15006147
-4.4968524	澳门特别行政区	-0.15006147
-4.057948	台湾地区	-0.1736951
-4.4968524	公证机关	-0.15006147
-4.4968524	国外	-0.15006147
-4.4968524	我国	-0.15006147
-4.335387	驻	-0.15006147
-4.4968524	该国	-0.15006147
-3.9506652	领	-0.1710047
-4.4968524	馆	-0.15006147
-4.4968524	公证	-0.15006147
-4.057948	日及	-0.15006147
-4.4968524	不保	-0.15006147
-4.335387	什么	-0.15006147
-4.335387	免责	-0.1986892
-4.4968524	还有	-0.15006147
-4.2007446	一些	-0.15006152
-4.4968524	背景	-0.15006147
-4.335387	突出	-0.15006152
-3.297251	申领	-0.3800824
-4.2007446	年领	-0.15006152
-4.2007446	期限内	-0.15006147
-3.5864363	退保	-0.36674178
-3.8647041	不予	-0.1710047
-4.2007446	受理	-0.1736951
-4.4968524	乐	-0.15006147
-4.4968524	享福	-0.15006147
-4.4968524	后且	-0.15006147
-4.335387	现	-0.15006147
-4.2007446	54	-0.15006152
-4.2007446	实领	-0.18186767
-4.057948	应领	-0.23542787
-4.4968524	其向	-0.15006147
-4.4968524	守护星	-0.15006147
-4.2007446	6%	-0.15006147
-4.4968524	储备金	-0.15006147
-4.2007446	所交	-0.18186767
-3.7929785	数	-0.2057534
-4.4968524	按所交	-0.15006147
-4.4968524	不含	-0.15006147
-4.4968524	第四项	-0.15006147
-4.4968524	人且	-0.15006147
-3.9506652	归还	-0.21695937
-4.335387	安康	-0.15006147
-4.335387	对象	-0.15006152
-4.4968524	人士	-0.15006147
-4.335387	81	-0.15006147
-3.7929785	80	-0.27201617
-4.4968524	因腺样	-0.15006147
-3.9506652	体	-0.16340852
-4.335387	肥大	-0.15006147
-4.4968524	生殖器官	-0.15006147
-3.9506652	险种	-0.21695937
-3.7929785	定点医院	-0.16886437
-4.4968524	免于	-0.15006147
-3.9506652	列明	-0.21695937
-4.4968524	续年	-0.15006147
-4.057948	不变	-0.39300779
-4.335387	6.7	-0.15006147
-4.057948	64	-0.1736951
-3.9506652	日额	-0.29614058
-4.2007446	9.8	-0.16171758
-4.4968524	数最多	-0.15006147
-4.4968524	可达	-0.15006147
-4.335387	9.23	-0.15006152
-4.2007446	份数	-0.15006147
-4.2007446	9.24	-0.1736951
-4.057948	8.6	-0.17590879
-4.057948	8.7	-0.17590879
-4.2007446	9.18	-0.15006147
-4.335387	9.19	-0.15006152
-3.7929785	轻度	-0.16567343
-4.057948	重疾	-0.1736951
-4.335387	前本	-0.18186767
-4.4968524	据此	-0.15006147
-4.2007446	9.15	-0.16567343
-3.4779196	当年度	-0.48125964
-4.335387	腺样体	-0.15006147
-4.4968524	指咽	-0.15006147
-4.4968524	扁桃体	-0.15006147
-4.4968524	鼻咽	-0.15006147
-3.8647041	部	-0.22283313
-4.4968524	毗邻	-0.15006147
-4.4968524	或腺样	-0.15006147
-3.8647041	反复	-0.19677149
-4.4968524	使腺样	-0.15006147
-4.4968524	病理性	-0.15006147
-4.4968524	原来	-0.15006147
-4.4968524	间隙	-0.15006147
-4.4968524	薄弱	-0.15006147
-4.4968524	胚胎	-0.15006147
-4.4968524	裂隙	-0.15006147
-4.4968524	闭合	-0.15006147
-4.335387	成为	-0.15006147
-4.4968524	裂孔	-0.15006147
-4.2007446	症指	-0.15006147
-4.4968524	已知	-0.15006147
-4.4968524	动力装置	-0.15006147
-4.335387	驱动	-0.1986892
-4.335387	牵引	-0.15006147
-4.4968524	道路	-0.15006147
-3.9506652	行驶	-0.16340852
-4.4968524	乘用	-0.15006147
-4.335387	工程	-0.15006147
-4.4968524	专项	-0.15006147
-3.9506652	作业	-0.23897421
-4.4968524	轮式	-0.15006147
-4.4968524	电疗	-0.15006147
-4.335387	安益	-0.1986892
-3.7929785	人生	-0.312221
-4.4968524	2013	-0.15006147
-3.629605	5.4	-0.18832527
-4.4968524	多久	-0.15006147
-4.4968524	虽	-0.15006147
-4.335387	600	-0.1986892
-4.4968524	步数	-0.15006147
-3.9506652	10000	-0.33233786
-4.4968524	步	-0.15006147
-4.4968524	第三个	-0.15006147
-4.335387	110%	-0.15006147
-3.8647041	机关	-0.16171758
-4.4968524	记	-0.15006147
-3.7314367	5.5	-0.1736951
-4.335387	智悦	-0.1986892
-4.4968524	初	-0.15006147
-4.335387	男性	-0.15006147
-4.4968524	180.980	-0.15006147
-4.4968524	45515.783	-0.15006147
-4.4968524	63191.030	-0.15006147
-4.4968524	48526.364	-0.15006147
-4.4968524	01201.050	-0.15006147
-4.4968524	50536.994	-0.15006147
-4.4968524	44211.050	-0.15006147
-4.4968524	51547.694	-0.15006147
-4.4968524	92221.030	-0.15006147
-4.4968524	52558.455	-0.15006147
-4.4968524	44231.000	-0.15006147
-4.4968524	52569.296	-0.15006147
-4.4968524	02240.970	-0.15006147
-4.4968524	525710.216	-0.15006147
-4.4968524	66250.940	-0.15006147
-4.4968524	525811.227	-0.15006147
-4.4968524	37260.920	-0.15006147
-4.4968524	525912.338	-0.15006147
-4.4968524	15270.920	-0.15006147
-4.4968524	526013.559	-0.15006147
-4.4968524	02280.920	-0.15006147
-4.4968524	536114.899	-0.15006147
-4.4968524	98290.930	-0.15006147
-4.4968524	556216.3611	-0.15006147
-4.4968524	04300.960	-0.15006147
-4.4968524	576317.9712	-0.15006147
-4.4968524	21311.010	-0.15006147
-4.4968524	596419.7413	-0.15006147
-4.4968524	50321.060	-0.15006147
-4.4968524	636521.6814	-0.15006147
-4.4968524	93331.140	-0.15006147
-4.4968524	676623.8016	-0.15006147
-4.4968524	50341.220	-0.15006147
-4.4968524	716726.1318	-0.15006147
-4.4968524	24351.320	-0.15006147
-4.4968524	776828.6720	-0.15006147
-4.4968524	16361.440	-0.15006147
-4.4968524	846931.4622	-0.15006147
-4.4968524	28371.560	-0.15006147
-4.4968524	917034.5024	-0.15006147
-4.4968524	61381.711	-0.15006147
-4.4968524	007137.8327	-0.15006147
-4.4968524	18391.871	-0.15006147
-4.4968524	107241.4730	-0.15006147
-4.4968524	01402.051	-0.15006147
-4.4968524	217345.4533	-0.15006147
-4.4968524	12412.251	-0.15006147
-4.4968524	337449.7836	-0.15006147
-4.4968524	55422.471	-0.15006147
-4.4968524	477554.5040	-0.15006147
-4.4968524	31432.711	-0.15006147
-4.4968524	627659.6444	-0.15006147
-4.4968524	45442.981	-0.15006147
-4.4968524	797765.2448	-0.15006147
-4.4968524	98453.281	-0.15006147
-4.4968524	987871.3253	-0.15006147
-4.4968524	96463.602	-0.15006147
-4.4968524	197977.9259	-0.15006147
-4.4968524	41473.962	-0.15006147
-4.4968524	428085.0765	-0.15006147
-4.4968524	36484.352	-0.15006147
-4.4968524	688192.8171	-0.15006147
-4.4968524	88494.782	-0.15006147
-4.4968524	9682	-0.15006147
-4.4968524	101.1878	-0.15006147
-4.4968524	98505.263	-0.15006147
-4.2007446	业	-0.18186767
-4.4968524	生命表	-0.15006147
-4.4968524	1990	-0.15006147
-4.4968524	1993	-0.15006147
-4.4968524	女表	-0.15006147
-4.4968524	非标准	-0.15006147
-4.335387	智慧	-0.1986892
-4.335387	星	-0.18851829
-4.057948	5000	-0.33233786
-3.677543	本条	-0.21043359
-4.4968524	归属于	-0.15006147
-4.2007446	各自	-0.18186767
-4.4968524	元时	-0.15006147
-3.9506652	未交	-0.18186767
-4.4968524	满前	-0.15006147
-3.9506652	2.8	-0.18851829
-3.7314367	评估	-0.1593612
-4.4968524	项为	-0.15006147
-4.2007446	划入	-0.18186767
-4.4968524	才俊	-0.15006147
-4.4968524	连结	-0.15006147
-4.4968524	2012	-0.15006147
-4.4968524	计量	-0.15006147
-4.4968524	会计师	-0.15006147
-4.4968524	事务所	-0.15006147
-4.4968524	审计	-0.15006147
-4.4968524	新设	-0.15006147
-4.4968524	环境	-0.15006147
-4.4968524	分解	-0.15006147
-4.2007446	间	-0.15006147
-3.7314367	涉及	-0.16171758
-3.8647041	证券	-0.22283313
-4.4968524	交易所	-0.15006147
-4.4968524	停市	-0.15006147
-4.335387	外部	-0.15006147
-4.4968524	客观因素	-0.15006147
-4.335387	暂停	-0.15006147
-4.057948	延迟	-0.15006147
-3.9506652	价格	-0.17841247
-4.335387	买入价	-0.15006147
-4.335387	卖出价	-0.15006147
-3.8647041	+	-0.15006147
-3.7314367	买入	-0.18186772
-4.057948	卖出	-0.21695937
-4.4968524	差价	-0.15006147
-3.8647041	2%	-0.19224639
-3.7314367	5.6	-0.1710047
-4.335387	数量	-0.15006152
-3.9506652	5.7	-0.1736951
-4.4968524	转到	-0.15006147
-4.4968524	每周	-0.15006147
-4.335387	10.13	-0.15006152
-4.4968524	转出	-0.15006147
-3.7314367	手续费	-0.19779325
-4.4968524	所得	-0.15006147
-4.4968524	各次	-0.15006147
-3.8647041	任一	-0.20506938
-4.4968524	数须	-0.15006147
-3.8647041	5.8	-0.15006152
-3.9506652	5.10	-0.16886437
-4.335387	管理费	-0.15779734
-4.4968524	1.2%	-0.15006147
-4.4968524	管理工具	-0.15006147
-3.9506652	基金	-0.16171758
-4.4968524	兼顾	-0.15006147
-4.4968524	回购	-0.15006147
-4.4968524	品种	-0.15006147
-4.4968524	股票市场	-0.15006147
-4.335387	企业债券	-0.1986892
-4.335387	信用风险	-0.18186767
-4.4968524	星年	-0.15006147
-4.4968524	00.720	-0.15006147
-4.4968524	66421.980	-0.15006147
-4.4968524	9710.60	-0.15006147
-4.4968524	54432.111	-0.15006147
-4.4968524	0320.50	-0.15006147
-4.4968524	42442.261	-0.15006147
-4.4968524	130.420	-0.15006147
-4.4968524	33452.411	-0.15006147
-4.4968524	1840.360	-0.15006147
-4.4968524	27462.61	-0.15006147
-4.4968524	2750.320	-0.15006147
-4.4968524	22472.811	-0.15006147
-4.4968524	3960.310	-0.15006147
-4.4968524	2483.041	-0.15006147
-4.4968524	5370.310	-0.15006147
-4.4968524	19493.31	-0.15006147
-4.4968524	6980.310	-0.15006147
-4.4968524	18503.571	-0.15006147
-4.4968524	8790.310	-0.15006147
-4.4968524	18513.852	-0.15006147
-4.4968524	07100.310	-0.15006147
-4.4968524	17524.132	-0.15006147
-4.4968524	3110.310	-0.15006147
-4.4968524	17534.432	-0.15006147
-4.4968524	55120.310	-0.15006147
-4.4968524	17544.782	-0.15006147
-4.4968524	84130.320	-0.15006147
-4.4968524	17555.23	-0.15006147
-4.4968524	18140.340	-0.15006147
-4.4968524	18565.743	-0.15006147
-4.4968524	58150.360	-0.15006147
-4.4968524	19576.434	-0.15006147
-4.4968524	04160.40	-0.15006147
-4.4968524	21587.264	-0.15006147
-4.4968524	56170.460	-0.15006147
-4.4968524	23598.235	-0.15006147
-4.4968524	13180.510	-0.15006147
-4.4968524	25609.315	-0.15006147
-4.4968524	77190.570	-0.15006147
-4.4968524	266110.496	-0.15006147
-4.4968524	47200.620	-0.15006147
-4.4968524	286211.757	-0.15006147
-4.4968524	24210.660	-0.15006147
-4.4968524	36313.098	-0.15006147
-4.4968524	09220.690	-0.15006147
-4.4968524	326414.549	-0.15006147
-4.4968524	06230.720	-0.15006147
-4.4968524	336516.1310	-0.15006147
-4.4968524	15240.740	-0.15006147
-4.4968524	346617.9111	-0.15006147
-4.4968524	38250.760	-0.15006147
-4.4968524	356719.8912	-0.15006147
-4.4968524	76260.780	-0.15006147
-4.4968524	366822.114	-0.15006147
-4.4968524	32270.80	-0.15006147
-4.4968524	366924.5716	-0.15006147
-4.4968524	07280.820	-0.15006147
-4.4968524	377027.3118	-0.15006147
-4.4968524	03290.840	-0.15006147
-4.4968524	397130.3420	-0.15006147
-4.4968524	24300.880	-0.15006147
-4.4968524	417233.6822	-0.15006147
-4.4968524	72310.930	-0.15006147
-4.4968524	437337.3725	-0.15006147
-4.4968524	48320.990	-0.15006147
-4.4968524	477441.4328	-0.15006147
-4.4968524	56331.060	-0.15006147
-4.4968524	57545.931	-0.15006147
-4.4968524	99341.120	-0.15006147
-4.4968524	537650.8335	-0.15006147
-4.4968524	8351.190	-0.15006147
-4.4968524	567756.2640	-0.15006147
-4.4968524	03361.280	-0.15006147
-4.4968524	67862.2644	-0.15006147
-4.4968524	73371.370	-0.15006147
-4.4968524	657968.8749	-0.15006147
-4.4968524	95381.470	-0.15006147
-4.4968524	78076.1955	-0.15006147
-4.4968524	77391.590	-0.15006147
-4.4968524	768184.2262	-0.15006147
-4.4968524	25401.720	-0.15006147
-4.4968524	8382	-0.15006147
-4.4968524	93.0769	-0.15006147
-4.4968524	49411.850	-0.15006147
-4.335387	2003	-0.15006147
-4.335387	三级	-0.15006147
-4.4968524	大部	-0.15006147
-4.335387	无意识	-0.15006147
-4.4968524	执行命令	-0.15006147
-4.335387	血压	-0.15006147
-4.4968524	醒觉	-0.15006147
-4.4968524	表达	-0.15006147
-4.335387	睁眼	-0.15006147
-3.9506652	有无	-0.16567343
-4.4968524	目的性	-0.15006147
-4.4968524	跟踪	-0.15006147
-4.4968524	丘脑	-0.15006147
-4.4968524	下部	-0.15006147
-4.2007446	保存	-0.15006152
-4.335387	聚富	-0.1986892
-4.4968524	12000	-0.15006147
-4.2007446	政策	-0.1736951
-3.8647041	法律法规	-0.16886437
-4.4968524	资金运用	-0.15006147
-4.2007446	专用	-0.18186767
-4.2007446	自下	-0.1736951
-4.4968524	各个	-0.15006147
-4.4968524	分摊	-0.15006147
-4.057948	5.9	-0.18186767
-4.4968524	净值	-0.15006147
-4.2007446	10.15	-0.16567343
-4.4968524	上次	-0.15006147
-4.4968524	平均分配	-0.15006147
-4.4968524	其所患	-0.15006147
-4.4968524	临床经验	-0.15006147
-4.335387	存活	-0.15006147
-4.4968524	依各主险	-0.15006147
-3.9506652	2009	-0.33233786
-4.4968524	072	-0.15006147
-4.4968524	具体情况	-0.15006147
-3.8647041	储存	-0.56909907
-4.4968524	并于	-0.15006147
-4.335387	鑫	-0.1986892
-4.4968524	盛	-0.15006147
-4.4968524	期从本	-0.15006147
-3.9506652	这	-0.23739447
-4.2007446	9.10	-0.15006152
-4.2007446	9.11	-0.15006147
-4.4968524	因主险	-0.15006147
-4.2007446	9.12	-0.18186767
-4.2007446	9.13	-0.17717882
-4.2007446	9.14	-0.16567343
-4.2007446	9.17	-0.16567343
-3.9506652	2014	-0.15006147
-4.2007446	此前	-0.18186767
-4.335387	9.20	-0.15006147
-3.5471733	剩余	-0.2829843
-4.057948	9.9	-0.1604069
-4.4968524	髓质	-0.15006147
-4.4968524	囊	-0.15006147
-4.4968524	豆状	-0.15006147
-4.4968524	Wilson	-0.15006147
-4.335387	重疾后	-0.18186767
-4.2007446	计	-0.15006152
-4.335387	算	-0.1986892
-4.4968524	由主险	-0.15006147
-4.335387	完	-0.15006147
-4.335387	共有	-0.15006147
-4.335387	名称	-0.15006147
-4.057948	侵蚀性	-0.39300779
-4.2007446	葡萄胎	-0.15006152
-3.9506652	感染性	-0.23897421
-4.335387	心内膜炎	-0.18186772
-4.4968524	艾森门格	-0.15006147
-4.4968524	肺源性	-0.15006147
-4.057948	房室	-0.15006147
-4.4968524	传导	-0.15006147
-4.335387	阻滞	-0.15006152
-4.4968524	风湿热	-0.15006147
-4.335387	溃疡性	-0.1986892
-4.4968524	结肠炎	-0.15006147
-3.9506652	26	-0.16567343
-4.4968524	肺病	-0.15006147
-4.4968524	红斑狼疮	-0.15006147
-3.7314367	坏死性	-0.32080486
-4.2007446	33	-0.1736951
-3.629605	肺	-0.23363906
-4.4968524	肌瘤	-0.15006152
-4.057948	35	-0.1736951
-4.2007446	37	-0.18186767
-4.057948	39	-0.1736951
-3.9506652	41	-0.18851829
-4.2007446	43	-0.18186767
-3.7314367	胆道	-0.26965237
-4.057948	重建	-0.21695937
-3.9506652	32	-0.18851829
-4.4968524	硬皮病	-0.15006147
-3.8647041	肺泡	-0.22283313
-4.2007446	沉积	-0.15006147
-4.2007446	36	-0.18186767
-4.057948	特发性	-0.23542787
-3.5111675	肾上腺	-0.29297292
-4.057948	38	-0.1736951
-3.9506652	40	-0.16886437
-4.057948	纤维化	-0.15006147
-4.2007446	42	-0.18186767
-4.057948	44	-0.1736951
-4.335387	46	-0.15006147
-4.2007446	48	-0.15006152
-4.335387	52	-0.15006147
-4.335387	58	-0.15006147
-4.057948	克雅	-0.39300779
-4.335387	多灶性	-0.15006147
-4.335387	白质	-0.15006152
-4.335387	62	-0.15006147
-4.4968524	小脑	-0.15006147
-3.7929785	45	-0.18601237
-4.335387	47	-0.15006147
-4.2007446	49	-0.15006152
-4.335387	51	-0.15006147
-4.335387	53	-0.15006147
-4.2007446	痴呆	-0.15006152
-4.4968524	核上性	-0.15006147
-4.2007446	57	-0.15006152
-4.2007446	硬化性	-0.18186767
-4.2007446	全	-0.18186767
-4.335387	59	-0.15006147
